PMCID,pubmedbert_0,pubmedbert_1,pubmedbert_2,pubmedbert_3,pubmedbert_4,pubmedbert_5,pubmedbert_6,pubmedbert_7,pubmedbert_8,pubmedbert_9,pubmedbert_10,pubmedbert_11,pubmedbert_12,pubmedbert_13,pubmedbert_14,pubmedbert_15,pubmedbert_16,pubmedbert_17,pubmedbert_18,pubmedbert_19,pubmedbert_20,pubmedbert_21,pubmedbert_22,pubmedbert_23,pubmedbert_24,pubmedbert_25,pubmedbert_26,pubmedbert_27,pubmedbert_28,pubmedbert_29,pubmedbert_30,pubmedbert_31,pubmedbert_32,pubmedbert_33,pubmedbert_34,pubmedbert_35,pubmedbert_36,pubmedbert_37,pubmedbert_38,pubmedbert_39,pubmedbert_40,pubmedbert_41,pubmedbert_42,pubmedbert_43,pubmedbert_44,pubmedbert_45,pubmedbert_46,pubmedbert_47,pubmedbert_48,pubmedbert_49,pubmedbert_50,pubmedbert_51,pubmedbert_52,pubmedbert_53,pubmedbert_54,pubmedbert_55,pubmedbert_56,pubmedbert_57,pubmedbert_58,pubmedbert_59,pubmedbert_60,pubmedbert_61,pubmedbert_62,pubmedbert_63,pubmedbert_64,pubmedbert_65,pubmedbert_66,pubmedbert_67,pubmedbert_68,pubmedbert_69,pubmedbert_70,pubmedbert_71,pubmedbert_72,pubmedbert_73,pubmedbert_74,pubmedbert_75,pubmedbert_76,pubmedbert_77,pubmedbert_78,pubmedbert_79,pubmedbert_80,pubmedbert_81,pubmedbert_82,pubmedbert_83,pubmedbert_84,pubmedbert_85,pubmedbert_86,pubmedbert_87,pubmedbert_88,pubmedbert_89,pubmedbert_90,pubmedbert_91,pubmedbert_92,pubmedbert_93,pubmedbert_94,pubmedbert_95,pubmedbert_96,pubmedbert_97,pubmedbert_98,pubmedbert_99,pubmedbert_100,pubmedbert_101,pubmedbert_102,pubmedbert_103,pubmedbert_104,pubmedbert_105,pubmedbert_106,pubmedbert_107,pubmedbert_108,pubmedbert_109,pubmedbert_110,pubmedbert_111,pubmedbert_112,pubmedbert_113,pubmedbert_114,pubmedbert_115,pubmedbert_116,pubmedbert_117,pubmedbert_118,pubmedbert_119,pubmedbert_120,pubmedbert_121,pubmedbert_122,pubmedbert_123,pubmedbert_124,pubmedbert_125,pubmedbert_126,pubmedbert_127,pubmedbert_128,pubmedbert_129,pubmedbert_130,pubmedbert_131,pubmedbert_132,pubmedbert_133,pubmedbert_134,pubmedbert_135,pubmedbert_136,pubmedbert_137,pubmedbert_138,pubmedbert_139,pubmedbert_140,pubmedbert_141,pubmedbert_142,pubmedbert_143,pubmedbert_144,pubmedbert_145,pubmedbert_146,pubmedbert_147,pubmedbert_148,pubmedbert_149,pubmedbert_150,pubmedbert_151,pubmedbert_152,pubmedbert_153,pubmedbert_154,pubmedbert_155,pubmedbert_156,pubmedbert_157,pubmedbert_158,pubmedbert_159,pubmedbert_160,pubmedbert_161,pubmedbert_162,pubmedbert_163,pubmedbert_164,pubmedbert_165,pubmedbert_166,pubmedbert_167,pubmedbert_168,pubmedbert_169,pubmedbert_170,pubmedbert_171,pubmedbert_172,pubmedbert_173,pubmedbert_174,pubmedbert_175,pubmedbert_176,pubmedbert_177,pubmedbert_178,pubmedbert_179,pubmedbert_180,pubmedbert_181,pubmedbert_182,pubmedbert_183,pubmedbert_184,pubmedbert_185,pubmedbert_186,pubmedbert_187,pubmedbert_188,pubmedbert_189,pubmedbert_190,pubmedbert_191,pubmedbert_192,pubmedbert_193,pubmedbert_194,pubmedbert_195,pubmedbert_196,pubmedbert_197,pubmedbert_198,pubmedbert_199,pubmedbert_200,pubmedbert_201,pubmedbert_202,pubmedbert_203,pubmedbert_204,pubmedbert_205,pubmedbert_206,pubmedbert_207,pubmedbert_208,pubmedbert_209,pubmedbert_210,pubmedbert_211,pubmedbert_212,pubmedbert_213,pubmedbert_214,pubmedbert_215,pubmedbert_216,pubmedbert_217,pubmedbert_218,pubmedbert_219,pubmedbert_220,pubmedbert_221,pubmedbert_222,pubmedbert_223,pubmedbert_224,pubmedbert_225,pubmedbert_226,pubmedbert_227,pubmedbert_228,pubmedbert_229,pubmedbert_230,pubmedbert_231,pubmedbert_232,pubmedbert_233,pubmedbert_234,pubmedbert_235,pubmedbert_236,pubmedbert_237,pubmedbert_238,pubmedbert_239,pubmedbert_240,pubmedbert_241,pubmedbert_242,pubmedbert_243,pubmedbert_244,pubmedbert_245,pubmedbert_246,pubmedbert_247,pubmedbert_248,pubmedbert_249,pubmedbert_250,pubmedbert_251,pubmedbert_252,pubmedbert_253,pubmedbert_254,pubmedbert_255
PMC6195372,-2.0474918,-11.708419,-27.05958,14.48496,19.680979,13.806023,-3.883931,10.812938,-5.485285,-2.657367,-30.005655,9.969184,16.675608,3.349954,4.110758,13.763875,23.078962,-11.947313,8.890202,5.552701,-8.758311,20.581192,0.35827506,4.9209533,-5.275282,-1.6379235,-10.506813,14.061086,7.284073,-4.7604423,13.94325,8.741724,9.861887,17.678265,-8.168196,-4.835854,17.427843,-6.1977525,-4.2299376,-8.624344,6.172441,-8.517772,-8.299542,10.851473,-1.9958975,11.856692,12.546714,-3.9740613,-12.487295,-10.137935,12.895922,13.088135,2.809708,8.25074,13.302366,20.08534,-0.9212284,16.206602,-7.431268,-8.111703,-5.389689,0.7600257,0.87075365,0.64146656,2.651071,-9.516444,-8.908612,-13.371719,-3.881452,-11.263247,-3.1744835,-1.9682128,-12.428015,-7.2731066,7.131278,-1.1676137,1.7204733,-0.5537883,0.24345732,-2.9155889,0.8409136,2.8558824,2.326446,-4.876546,1.8680379,5.4751525,1.7010958,4.19504,12.468336,-1.6712586,8.092045,-6.6386337,-3.2366347,7.1939635,2.3901672,4.4248166,0.2188516,-2.0120034,6.1947055,1.1587639,4.7743564,-11.300502,4.4613028,-10.931154,-1.2340454,10.902634,2.16157,5.1545343,-7.0786133,3.187801,2.1701188,-4.395943,-2.3921323,-12.868942,9.938133,7.40671,-0.70533395,5.063608,-4.415202,9.592395,-1.9369297,6.695455,1.3636315,18.12495,-7.395963,4.372162,2.8325303,5.31993,3.4178786,3.591648,-0.9196118,3.704515,-1.6638634,7.950442,-9.676077,-11.581187,9.150343,1.3665931,2.9316564,-0.11969235,8.817804,2.7877262,-3.661187,5.992636,6.186793,0.79269636,-3.9207547,-2.6326354,-4.3923774,-0.872276,-2.3327508,-1.3182323,5.7779236,9.699841,3.4844875,2.5156295,-4.7151213,3.811299,4.118915,-3.8568401,0.42543235,2.4619424,-3.3505483,-1.4712462,-2.6238608,4.912618,12.017339,-9.773242,-1.8452225,-2.8394907,5.4747763,-6.030876,5.270015,0.8790678,-1.8724791,2.9779088,5.4269347,0.95099336,-0.98005974,-7.657425,2.2319098,-5.7221584,4.586701,7.032674,-1.2862637,-2.5179524,-2.572085,-6.8252716,0.5603354,1.0275961,4.3812575,-7.2712393,-3.0573473,4.7814264,-1.0375161,4.2791147,2.7143545,3.1864073,-2.265295,-1.5788387,3.1853423,0.25403872,2.6367316,-7.412313,8.196181,-4.438956,0.6487409,-3.8298028,3.2946014,-3.4536242,0.6600086,-1.9386495,-2.6765504,-1.8228226,-0.07485174,11.407951,2.4270625,-4.0132294,-3.979507,-6.812452,-2.704988,2.03412,0.360531,2.7208543,-2.8938377,0.8531677,-1.8730112,5.4684615,-5.3736286,2.7289345,2.3666735,-3.0095885,4.7493825,-1.2018661,0.2135255,0.5002087,1.305709,2.6810021,-3.2667,2.5579524,-7.0897417,7.7231736,-3.9993458,0.752312,7.381382,-5.7664833,-2.295431,7.488546,-4.813614,-1.3973336,-1.9932821,-9.4277115,1.9228204,-5.1079397,2.4157119,2.7807827
PMC5788666,-23.388386,-3.4081907,-12.59719,-0.07799192,23.631617,5.486148,-10.6250515,-3.8448422,16.11795,31.918955,-11.086163,3.052421,17.066435,1.8455415,0.6703457,-0.44626465,7.160043,1.746194,-1.5776663,1.6260725,-0.59925294,16.388458,-7.9909763,-13.837113,-8.9800625,7.8794284,-19.216543,6.187971,16.372866,8.27144,-2.899078,10.531436,-2.687163,-0.15447836,-1.9188218,3.5739017,10.015854,-13.979051,-8.209373,-4.1713285,0.6100414,-11.473449,1.9015255,2.4377217,-6.832247,3.6667826,6.522682,0.48447585,0.16086641,4.7310224,9.434029,16.645716,-5.1937833,9.181053,-2.2461405,8.897192,-3.182198,-1.7654126,-5.424518,-5.040116,-1.5397204,-5.2155313,-1.914696,5.561094,13.3759165,9.689515,-4.7166014,-0.9401201,-7.509447,-7.5222096,-1.8229667,8.817521,-7.2799215,-1.4347888,7.353184,3.510111,-5.1718917,3.8154883,-12.849347,5.505313,4.066258,7.45028,7.195139,3.5497937,-4.054232,4.996866,-5.5112243,0.2511023,10.254143,-8.593097,9.416433,-4.960129,-14.877707,-2.7757545,11.594246,4.2747407,3.5029643,-1.4524086,2.6466026,7.0180283,1.9371338,2.684783,-2.1634376,-3.9187303,12.250328,11.16058,-14.15921,-3.2722304,2.7885432,6.4615526,1.9472744,-18.90167,-2.9674811,0.36020085,8.364785,9.000717,-1.9428433,8.396739,-0.6842386,0.77806306,5.207358,0.69280565,2.4037576,5.65333,-12.989484,3.113105,1.3049083,-2.2770476,5.291403,-1.7147856,-1.1380355,-0.9754658,0.6500911,0.70400923,-7.2042565,-1.3973799,-3.4562204,3.5510576,6.0030355,-2.581167,1.4121585,0.60726285,3.9460335,2.7731652,2.8743865,-4.0224442,3.74555,-10.891625,-1.4417925,-1.5444704,4.379168,-4.4820843,-3.8702955,1.945097,7.3507776,-1.7362262,0.49315763,-7.4997444,1.0734181,-9.895753,6.1198087,-1.6393336,1.8588345,2.6451209,3.3272502,3.1246204,3.2354157,-3.3624384,-0.9202326,-4.0916357,7.265813,-0.8709792,0.9482888,1.4510096,-2.6298983,-5.447698,5.9726334,6.318238,-1.8746573,0.56762075,-0.92735195,1.0224953,-2.0735228,-4.4639745,-1.782943,-3.744572,-1.199125,6.0476723,7.3028517,5.23736,-0.59978795,-6.228273,2.759252,-4.5063605,-1.0587742,5.386507,1.3313158,-0.29206428,2.8392015,5.1160502,0.33127293,3.0460334,1.8208289,-5.542281,1.3139098,-1.8693812,-0.9665297,-1.761673,1.8361093,-1.5889385,-1.0758907,3.499271,-4.1470294,-6.2224855,-0.9741172,0.9218633,-1.5599529,3.3830056,1.1926025,-3.5041728,-0.546943,5.686631,-0.08824336,-1.9790969,1.505373,-0.46252397,4.3581915,-4.9304514,-2.9910665,-1.4098992,0.7657845,-0.88204366,8.525545,-1.5913376,-2.1477966,3.001892,1.470991,0.60259473,-7.4507513,5.1253386,-4.489022,1.002462,-3.7824583,2.4906533,-0.7405161,-1.756659,1.3350717,2.6814668,3.7951224,-2.6953423,-0.24960956,0.8602101,3.5874782,-1.1933812,1.7266971,-0.4012407
PMC5288225,-6.436529,-1.4731597,-15.674603,-10.859231,8.858443,8.568746,12.424209,-3.2140026,12.676566,9.637255,-2.1758635,8.413589,21.146118,8.441197,5.691434,-0.8221005,-0.84176123,-4.543615,-7.718537,-1.9588027,-2.003846,9.288718,-10.227707,5.086296,-4.567282,-14.383854,5.588765,5.852373,0.01204057,-4.0941563,3.1961753,-4.593763,-1.7007326,12.212994,1.7909594,-5.345322,0.3004743,0.7493663,1.4813634,-6.7884274,10.285932,5.3153024,-0.28845692,-4.067816,4.0395784,0.3778477,-6.616472,-5.924536,0.5083091,2.0134525,-4.335152,18.148977,1.4848852,12.43391,-7.5147867,0.50049347,-1.8322902,6.7684994,2.368369,-3.5942457,-6.733942,7.787207,-14.450706,-5.7167892,4.861321,-8.5828285,9.69314,4.416311,-3.4972894,0.8939712,-4.547779,-8.951557,-5.5802417,-10.91614,2.3941042,-3.1873581,-0.6753499,-4.859339,4.4022274,4.791183,-2.026486,2.8534782,-1.5982082,-7.4072638,8.395139,6.1416025,0.8544737,-1.2180012,3.3475447,-0.2010546,2.0874305,-11.086798,-8.844037,9.659295,-3.6174977,-2.5505652,3.8621886,-3.1833203,1.0930866,-5.5614624,-8.247146,-1.5619699,2.0845053,-5.9205966,5.613254,4.17582,-1.6961635,-5.668971,-3.5443232,2.1338313,4.102609,2.1777885,-1.3977634,-5.0287824,3.8776884,2.6944628,-5.873672,4.8553,-2.0979486,4.423035,-1.6593301,-1.2395682,-4.2775044,7.2254105,-1.385885,0.5047037,-1.7236757,5.6207776,5.357258,-0.43771225,2.7638626,2.083285,5.257083,4.0215287,-13.587285,1.1337782,3.6737835,0.769419,0.419361,-1.3332032,6.695909,1.2934308,-2.9741457,-0.4691843,1.2564077,2.7740734,0.1859955,0.9884885,5.554565,1.2486016,0.06776708,0.8862229,-1.5247608,2.468711,-0.3659544,1.2204022,-10.178229,-3.1567223,1.3025668,-0.038297873,-4.25208,2.156489,-1.6312022,0.06186138,0.5804208,6.334626,-2.7519886,-4.2846303,-2.3157902,0.9066926,1.6383867,-0.5307234,5.7301617,-5.8350863,2.9821627,4.28268,2.110847,0.23416454,-5.7827578,-0.7111176,0.45623294,-1.2224326,0.49586493,0.7382995,-2.0756104,0.29120472,1.2865919,-4.4672513,3.1770446,1.9148904,0.7208487,-4.1124463,1.5879066,4.602878,-1.9513319,4.068488,-2.089299,1.7523897,0.8599234,2.6372037,1.0841478,2.0888324,2.5958173,-3.439314,-2.7874005,-3.0140717,0.94720536,-0.8428803,-2.2397287,1.1097211,-0.65906554,2.817206,1.3511894,1.3909903,2.2521982,-1.4818934,0.38690665,3.6801584,-2.6976445,-3.3559377,-0.2174946,1.5247152,1.0863296,-0.9601551,1.1007526,-0.5533038,2.9386668,-2.086252,-4.77204,2.7638628,-2.2303908,1.8667407,3.198317,-1.7585243,1.3116063,-1.6019472,2.171097,0.8879343,-1.5770798,2.138054,-4.4420867,3.2522676,-6.389788,0.38334277,1.3066125,-4.6645875,-0.73303217,0.2591735,4.5353427,1.1125473,-1.8390206,-1.7777238,-1.2833929,0.038519718,4.852289,3.461955
PMC5008364,-25.188587,-4.1943765,-15.666738,3.1326816,14.294427,16.346973,-11.234441,-11.412168,11.798095,-0.18350641,-17.296848,-5.8168173,-5.406211,5.9913774,5.3065825,-1.741157,-6.7456746,-0.5631314,9.42392,4.0926003,1.0495648,4.5452986,1.0004691,-17.854578,-6.2910047,-7.3147984,-6.894266,5.2979817,13.700074,-16.562258,2.064169,4.068046,-8.225351,6.3705287,1.4323773,-8.683027,14.337806,-6.8558207,-1.6846558,-5.4207544,-0.4219025,-13.791659,3.7747064,-7.0695024,-4.153615,3.344435,-5.8448606,-7.2157164,-5.697769,5.522652,9.057625,12.912542,6.3462286,11.302196,-0.92032075,7.031536,4.330522,11.29274,-4.8729343,4.7566457,-7.0978217,6.198794,-3.1948113,-9.94693,3.9533615,-0.5187124,2.3902738,-6.3948264,-11.903766,-7.874425,-5.4881263,2.4927013,-10.11381,-4.767562,9.380616,-6.2625685,-3.491044,-8.784105,-14.075877,8.542886,-3.925474,5.0338273,9.382269,2.2874398,-4.9987693,7.477395,3.5801098,-3.9288592,9.518178,-5.3583183,7.926194,-5.4418054,-5.3566203,2.0766883,7.0927963,6.980121,-3.850087,-9.114696,-0.39174053,-2.4545252,-2.8936808,-7.981407,-0.24146764,-3.52615,1.1852872,2.4066103,-4.859851,-7.92104,-8.076905,5.759435,0.5356787,-7.232079,-2.1418202,-2.418814,6.565267,15.007027,-2.9233243,2.4776616,0.9338063,3.2306683,-7.954884,-2.957892,-3.6928947,6.5217333,-1.3226603,4.987974,-2.2270055,9.973037,2.6033306,-4.1582336,3.6391542,1.7513975,-0.7586544,-2.6990755,-2.7768097,-3.2880144,1.7417514,6.3664985,2.7068195,2.5352266,7.528465,-5.830751,2.2472057,7.190012,-3.1318924,-2.3212388,-4.694125,-1.2258228,-0.58316404,0.65170765,-4.8078113,-5.6653285,-3.5623794,1.2721508,3.7775004,0.031317797,-2.9749117,-4.878319,7.668214,0.3505556,5.1543,3.0103788,1.5231184,8.204635,-2.1255057,4.8192043,4.594977,-3.057148,-0.33453473,4.962134,2.8133566,-3.6025414,1.5747918,6.0942335,-1.9748904,5.1441913,10.204368,1.8426814,-4.383361,-2.6124668,-0.5664966,6.0037203,2.3710532,2.0112557,-3.5051444,-1.5823368,-2.1001081,-5.227647,8.448616,1.8593962,5.2523913,-3.123453,1.8911046,1.7979419,4.8755593,1.572547,1.4257252,-3.6607623,0.23290133,8.618197,0.7640055,-0.8646536,2.105017,-2.7472725,2.9574792,-3.5695362,-3.0455275,-2.4069715,2.2137136,-0.43824622,-5.8695383,0.41910073,-2.4883745,-6.3399715,2.1337075,-3.3837106,1.9555656,-0.46071947,-1.6561279,0.3386578,-1.7646883,2.6590242,4.5614285,-2.0363626,-1.2286257,0.48712316,3.4628859,-3.4796135,-5.59193,1.4792515,2.2263486,-1.2942088,7.93622,-3.4548454,-0.62540317,3.593943,3.2838202,3.2399602,-4.361661,4.524408,-3.0005877,0.32639793,2.410151,8.35805,5.557184,2.6883373,-0.25898886,2.0781062,-0.99179065,-4.8093767,-3.9242802,-0.7284498,4.0413814,-0.7200691,0.32673565,0.9623774
PMC5593553,-26.607584,-3.3568826,-6.915185,4.3387017,4.256278,16.265207,-8.721328,-2.3394032,-16.121115,1.592146,-14.829752,4.8230495,-4.184042,-5.6932287,11.259394,-7.2518425,-3.722381,-0.14284575,2.052574,-5.3789325,-2.7347302,28.364157,-5.1413584,-25.128952,-0.25515974,-3.6672559,-27.777765,25.093512,28.601572,-12.340759,0.22482589,-5.4585834,0.28088075,13.721502,-0.5736509,-2.0736825,28.76719,-13.144992,-6.25379,-22.030409,-5.3686395,-15.772009,0.21960492,-9.787886,-20.467863,-1.8046613,-2.7971435,-5.4437523,8.016974,1.8907102,9.15821,16.60492,-4.817993,16.040071,6.6541724,4.2223473,2.8837707,18.02281,-14.038621,6.0352707,4.7409844,2.8023465,-6.75632,-11.058301,11.987538,3.94276,6.278752,0.1594943,-12.3640785,-3.7604933,-16.488235,8.782381,-8.3917,-6.052194,8.470533,-5.294234,-11.624829,-13.962573,-20.21989,7.5026445,-12.925281,4.869892,20.034744,3.5715113,6.463881,2.8763614,-0.41586995,-7.435111,19.157936,-11.215638,7.9367404,-11.706709,-11.856622,0.545762,11.741847,9.411847,-19.03592,-11.872247,-4.8551407,-2.5910091,-2.538462,-1.4483867,-14.436819,-12.221474,2.419071,12.329896,-17.093325,-11.76721,-0.43518823,11.014958,6.708526,-6.0530295,0.22953296,-8.093222,6.4357033,18.375061,6.7465315,4.310367,1.7424628,0.28618753,-11.724208,-10.166279,-0.7736068,7.543156,-12.471209,13.8649235,-2.4457142,8.8454685,10.615056,-8.281532,14.411064,4.193977,-5.2521477,-0.0955248,-6.054454,-13.230252,-2.24138,7.9148045,-1.7984651,0.3657385,22.500483,-4.82767,1.8715328,11.261296,-4.45188,2.739051,-6.8756547,-3.7798426,-5.973636,0.8493554,-7.551315,-9.385906,-5.8248715,1.9238818,11.001367,0.3209549,8.449513,-8.492206,9.266688,0.9595119,3.2370796,6.2486315,5.0091457,12.955283,-4.720548,2.1337366,12.64041,-9.602373,-1.7653503,5.813546,9.372443,3.907254,-2.6575115,8.017741,-8.232691,-3.8454363,22.627972,3.4770606,-8.289421,-0.24894518,5.1018143,11.29041,7.314935,1.640972,-6.1915493,4.1596613,-4.6224403,-2.80585,18.03513,-1.0982101,8.161027,-1.2543861,0.51719916,0.48638654,-0.28694496,10.3877535,-2.5099494,-10.544025,-2.7427838,13.154513,-4.6983414,-11.050313,5.974978,-5.253539,4.736984,-1.3364108,2.2881465,-2.8671813,2.3034163,-1.0521914,-8.354979,5.6128554,0.44332832,-7.279556,9.022372,-3.7619464,1.3128355,-6.595425,-1.3411862,0.67726606,-2.8400543,8.553109,1.6040448,-0.55096555,-2.186123,1.2990324,7.0876694,-8.795518,-11.4583845,-2.4784107,7.800679,-4.649473,5.9013476,0.88541627,-2.7181048,6.7961264,1.624297,5.950726,-1.3899813,4.528598,-3.4701908,4.606485,9.990097,13.362869,2.903891,4.277349,1.3740113,4.5886955,-0.8876252,-3.9935665,-4.2165504,-3.488356,10.202601,-5.5996904,1.6887788,-0.15405376
PMC5095048,-30.327833,0.7835669,-25.71207,13.810242,17.272856,12.887208,-20.282795,-18.678389,6.008594,-7.460531,-6.538246,2.1053224,3.5798588,-11.880831,6.3757963,-9.141582,-1.7872988,4.28096,2.3459127,0.44945115,-4.842258,3.7129674,12.84143,-6.786159,-0.6875552,-8.807434,-16.857382,13.328608,24.65336,-14.751054,4.8773103,-3.544527,-13.621733,8.367385,6.0251417,-10.592787,16.011415,-6.9131713,2.1246715,-3.3785875,-6.943029,-11.171874,3.8196423,-1.8817261,-2.4703622,-1.5544668,-5.911276,-15.600957,-4.195914,9.247886,7.300155,15.616861,3.6742628,2.3679643,-0.9674294,-8.615945,3.262537,16.327261,-7.5219936,1.7108079,-12.656901,8.738375,7.594561,-3.2380745,-3.227132,-0.7578894,-2.3712702,-6.844499,-6.369145,-9.385519,-7.0877028,-1.6974723,-0.5998173,1.9929429,18.495146,-5.2282352,3.5464544,-15.147624,-19.568296,10.987622,-5.831474,5.32198,21.156406,7.418584,5.1722126,7.105886,4.4303055,-6.4022317,7.1102257,-5.950359,8.780802,-6.3168416,2.8204293,3.078451,1.3800077,-0.71090376,-7.1820974,-12.793499,-3.7278206,-5.027612,1.7788968,-6.117466,-0.49318075,-2.5504434,8.76222,6.3359036,-11.37422,-1.5284028,-7.988199,9.475061,-0.8558554,-4.907635,-1.1591407,-3.1258416,3.4625769,15.2087,0.33022615,4.108323,0.39693293,-3.9868784,-16.115156,0.09196064,-8.829854,5.455252,-10.21327,7.397553,-1.5638942,7.59752,1.3740019,-4.757263,6.640622,3.6440046,-3.7556434,-7.832508,1.612962,-3.5258675,0.23913118,5.9849296,-0.7798274,-2.7689884,10.343098,-3.7882838,6.589066,4.012402,-0.982829,2.8623204,-4.0510435,-3.9300582,-1.8525044,2.2262247,-9.531588,-1.0277977,-5.700812,-1.4332272,4.5392056,0.6187642,-1.9619193,-5.5162754,4.1430945,-0.8638852,2.9490058,-0.11682821,1.036696,8.625417,-8.268578,0.0017715243,8.195369,-6.01156,0.4665419,8.674665,6.162168,-0.9424173,-3.4867501,8.274156,-3.179214,4.261986,10.979455,4.7574263,-4.6272388,-1.0995742,4.744729,4.7105627,5.7257676,-1.262217,-2.0674381,-0.44678402,-6.802628,-9.314218,7.688595,-1.8059227,7.2477727,-5.734285,2.9962583,0.8014955,5.309328,4.949007,-0.15232925,-8.677747,-0.26175693,12.951831,2.4051538,-0.5313627,1.4867806,-3.8174527,6.9369345,-0.7280444,0.7760023,-0.974385,3.5677936,3.7288947,-9.629516,2.7284555,-2.9406364,-7.982867,-2.143887,-5.1678314,5.809273,-5.5720167,-3.3027763,-2.1859996,-1.6419771,-1.8824784,4.1537313,-1.0941201,1.8963172,2.0919394,4.580028,0.4378155,-7.0320525,1.5654646,7.984303,2.1496413,8.494992,-6.3649545,-2.5986645,6.931443,7.07681,5.5716076,-0.7099492,3.0630429,-6.274447,-0.71390045,2.7862813,14.133492,8.003279,3.8366203,1.0273012,3.3946407,-0.66721016,-6.690425,-3.9092362,-1.2587613,5.349264,-1.3115118,-2.674087,-1.3860118
PMC5689618,-29.181805,2.5495605,-27.148325,-3.099726,17.539833,28.31452,-4.6953936,-10.27136,-10.741901,-2.7460978,-13.802897,-5.5696197,8.080259,-11.529742,2.5634224,0.19382948,-4.656604,5.7952895,10.281827,-4.300093,-14.801998,18.442669,17.352436,-2.1386728,-9.20432,-16.896952,-14.944566,21.513277,15.021365,-21.059826,-11.554543,-1.7908978,-12.210271,15.763201,7.3163533,-7.046479,15.963134,-6.9559016,0.72298485,-16.885527,-16.441153,-3.995573,4.546388,-8.675554,-1.665603,8.272783,-9.175417,-23.945509,7.9906306,11.7492,1.6798655,14.079534,-9.034215,10.131877,-6.17129,6.068495,6.662796,12.100264,-6.8299527,-1.4923676,-7.166124,15.197609,22.973166,-13.728128,10.721725,-8.413759,-2.4675934,-7.7463284,-11.044211,-8.800788,-10.062549,-0.32388818,-3.3752365,7.5456753,14.569411,1.5722113,-11.896035,-3.938278,-13.839359,5.154582,3.221854,9.430234,8.530393,1.65232,-5.018758,-1.8926439,7.1696563,-8.16119,13.897533,-9.257596,-0.31553838,-6.5129204,7.8334913,1.6836108,4.7222786,8.57601,-15.965737,-15.129925,8.322092,-4.4505625,3.221603,-8.487544,-4.2854733,-10.261397,2.1051946,3.9983134,-4.3730707,-4.116565,-5.4356046,7.2288904,-3.3273568,-5.0410132,-9.454626,-5.5073175,11.269262,24.487738,-0.18874794,4.35199,-0.77822584,-4.5512414,-7.2518106,0.7303772,-5.749725,-0.20551288,-5.5625563,1.39136,-3.5592027,9.038595,1.5601795,3.7574952,4.8780975,4.853153,-5.517799,-5.8639617,-5.448333,-3.3311906,-0.94025016,2.162922,-3.9919903,1.6857542,8.214857,-1.3810085,2.3407304,10.78807,-3.618984,-4.063585,-11.953981,-7.1442385,4.218662,8.505032,-12.874742,-3.8637094,-8.13218,-1.2778053,11.215397,4.5150743,6.118901,-6.74847,6.8509,2.5440912,1.0401481,-2.8303194,-0.042796154,8.869555,-8.1071,4.010118,6.5214367,1.4336059,-0.50351095,2.4548452,6.8287945,-0.3823844,-1.2936771,6.6451163,-2.0317612,4.8952518,16.39125,-5.706645,-4.7580767,-1.9982044,-0.1861627,5.291963,1.4738812,-1.3771616,-10.854404,-2.1205144,-1.2737515,-3.4608471,4.1874957,3.1355398,8.3991165,-7.6940246,3.3358173,-3.577938,7.045117,4.946368,-0.0046582413,-8.527381,-1.0670044,11.45963,0.48133728,0.03515109,-0.03782804,-4.903947,5.2495975,-0.23945603,-0.5533096,-3.7289035,5.365036,3.8059423,-10.639942,-1.2815555,-1.9836353,-9.002639,-0.7945711,-6.3423944,-2.520596,-0.30264932,-2.2718158,-0.97845703,-0.6740451,5.921333,10.579846,1.4874798,-1.2140102,0.20095953,6.9894857,-6.07231,-0.43366975,-1.0795377,8.908612,-0.7962979,7.025589,-7.898343,-1.2427161,8.103291,1.6745505,6.559187,-2.5649498,6.9071436,-2.5615153,-0.7814077,-0.24471597,4.707416,10.306984,5.111948,-1.4988071,-1.0663763,-2.3948698,-3.3421586,-2.0503004,-2.8079226,4.4376087,4.225926,-5.4047246,1.2251457
PMC5746380,-17.300406,-21.521622,-11.457803,1.0657408,-4.766972,17.74973,10.996359,-5.9537687,-17.819717,36.88411,3.12642,18.126194,18.289232,3.7768826,2.7565153,-3.959077,6.847786,0.161096,17.205164,-15.767344,-8.152849,8.642674,16.80176,-5.4765635,-15.384584,-1.8305141,-0.38884693,4.0361123,-15.560485,-19.778645,-0.8102131,9.491366,-0.036193263,-2.1251986,4.08913,-3.8359733,13.077245,-0.9933441,-14.530559,-23.166286,-8.9174795,-12.676463,-2.127804,-8.522061,3.1409276,-13.35607,0.004504734,-14.586171,-1.9113683,8.755773,11.412957,8.155299,-7.740744,17.413977,18.310389,2.6589434,-4.642779,-1.0230546,-0.96583176,-0.31982037,-8.839089,12.665222,7.977712,-0.16703613,14.8208475,-15.578623,2.4457953,-21.793116,-3.327674,3.330789,-7.3832593,0.3317533,-17.356428,1.0983485,5.920858,-0.23104677,-3.5021214,-7.7734723,-2.0878236,-3.2006757,10.093404,-2.8353553,6.864402,-3.2396202,-7.8214574,4.404099,2.5339205,0.2908004,25.152721,-13.250111,4.9929376,-6.326391,0.46281126,3.8221147,5.5237494,9.008772,2.5419343,-0.48344317,15.269628,-3.410635,3.065506,-0.62198764,5.1928864,-3.1788402,3.876067,-2.008349,-5.331214,-7.823812,-4.700083,11.655843,7.988203,-3.2651272,4.196432,3.3022294,9.132987,5.0891323,-1.3897051,1.2603233,-4.455551,8.236661,2.2783132,-3.2536638,-2.9147766,11.434914,-13.721465,-1.4042164,6.6348367,4.864229,2.9875393,1.5531495,-1.7066377,-1.638446,3.0336857,-1.9205991,-14.107964,-7.8574533,8.595608,-2.006784,8.534087,-4.2839994,7.4950023,-4.0321064,-2.2911131,4.0151987,8.134659,-4.9613495,2.5285752,-5.137937,0.24623899,4.0088353,3.5212998,3.2599459,0.6143502,0.51088804,-0.28801483,1.7451259,2.8033192,-4.7921457,-0.54305166,-7.3293834,4.4217157,-1.8016014,2.1315777,5.259185,0.5174109,3.2794588,12.202944,-7.7106094,-8.245165,-1.0752609,3.2333217,-3.5220234,0.08817815,4.6908646,1.3542421,2.018539,7.664494,6.3846908,-1.8795033,-1.9804281,1.1942321,-0.1698399,2.4551656,2.119979,-2.5217748,-3.084782,-1.6600642,-3.2617948,4.8749523,-3.1239188,1.4567332,-8.72653,0.8146195,1.9446439,2.002416,3.33677,2.1310697,2.1398804,-1.1123643,2.585676,2.1207745,4.304561,3.5682552,-6.6558394,1.9633808,3.2051797,1.3916985,1.2631905,3.242561,-0.009727003,-0.5396536,-3.6945925,-0.118226975,-6.5224624,2.445118,2.2643933,3.2257314,-1.8301033,-0.6155083,-6.7186785,-0.63732076,-0.9575923,1.4420987,4.991036,3.0215132,1.7916132,4.250305,0.45445642,-7.176797,-4.4466305,-3.232491,-2.1474886,1.49467,0.53058434,-0.07874491,-1.3709304,3.9989555,1.0809364,-2.8782284,4.1045136,0.62569016,-0.22190954,1.8964303,1.9018764,-0.59275013,-2.607241,-0.32847652,2.891468,-0.40776128,-1.2966692,-2.1717422,-5.133405,1.68448,-1.7840974,5.5059204,2.6153061
PMC5762321,-23.267921,7.5585566,15.141031,21.52033,6.3637476,-4.199235,5.019244,-0.71732545,-16.378975,-1.9230971,4.587521,13.985883,18.569479,-10.62017,-6.0927787,12.857101,-11.739221,20.98701,-3.1964176,-4.3644347,-21.70769,1.0965055,-12.960602,-18.21898,-19.33577,-7.0819554,-27.867878,-8.253517,-7.1759567,-38.407436,24.421972,-1.4560081,11.568619,-15.34233,-5.0585465,1.1846988,-14.188819,-5.6113772,-15.124029,9.83803,-17.418285,-1.66701,3.7455237,-5.1049905,4.7635026,13.480245,-2.150415,17.7451,-4.9496274,8.0408325,2.1683419,1.7184579,6.658466,1.0373096,2.322278,10.332317,-8.491748,-4.2057652,-0.8258391,13.222018,0.908075,2.5386763,-28.502872,-26.834682,-25.345978,-7.0047307,7.368948,-18.769682,-14.312161,-0.6215956,0.073416635,-4.4689293,-18.317484,-4.8176227,3.3173232,-5.7856355,-6.65034,-8.7432575,0.5222145,11.91838,0.22347194,3.2097678,12.3904505,-10.966272,4.5136466,16.153484,-5.2746773,-1.657319,-0.54300135,-4.0750756,-8.350763,0.50775015,7.0553527,-3.139468,7.2836967,-7.602867,-6.9885683,9.499684,-5.175789,6.215318,5.927654,-4.1233873,1.205498,-4.766012,-7.923741,2.5541482,2.6872735,-6.852284,-4.072584,8.376168,-18.958673,0.49619073,-8.002044,-9.038747,-13.701915,-1.5649873,-2.8729055,9.70437,-4.5433674,3.6672225,0.20786788,0.43912256,-0.88779056,18.650806,8.157651,2.9934852,8.840913,10.374598,-3.4883614,-4.1142774,2.5593781,-4.589522,5.19991,4.5700517,-9.503532,-10.87787,-1.81034,0.45865536,9.574073,1.1852565,-3.9080963,1.4651302,-4.4800544,4.901454,6.2288036,-4.5865026,1.008042,3.2142048,5.898335,3.8548095,0.8889072,1.9760059,0.5215347,-2.693118,10.358535,10.6523485,-3.7902114,6.5183682,-0.9342424,2.2852242,-1.8670939,-0.10164337,-2.7012367,2.4947894,-3.4646482,4.1001353,5.602913,3.2088177,-3.8760386,-1.322078,-2.9965866,-2.0585012,-3.65906,0.24247774,-0.7302476,-2.9826062,-2.8120515,1.2505718,-0.08400544,1.0792191,1.5774083,-9.266856,8.486113,-2.2473166,-2.878962,-3.927964,-0.9011977,3.1694162,8.36181,4.9096384,-2.3941312,1.7133492,-2.285977,3.9671197,-0.5064052,2.0451698,-2.7833984,5.7692223,-2.3745778,0.049370065,3.2270825,6.7081323,0.36966524,-3.8085911,0.69427186,-3.2989235,1.345362,-7.0579762,-1.5131078,1.1231911,-5.5210648,-0.79627854,5.0929604,-1.1646353,-2.0259776,-7.2371144,2.264528,-0.017992029,1.6195487,0.42774543,-1.3737036,2.6886222,-8.08408,-1.8931307,4.1824155,-1.9994651,-0.8594045,7.43223,-2.826879,1.9814123,-2.0019777,2.1287487,-2.7066786,-0.38356414,3.0362413,-4.191997,6.299374,7.6956735,-1.6939074,0.2346826,-1.6881782,-0.31198004,0.61857635,0.79789895,1.8243049,-4.603009,-7.814858,4.045106,1.9635593,4.6916447,1.600304,-0.6137444,-1.609319,1.6899698,1.8123707,3.099357
PMC5041909,-28.413456,-13.918004,-19.232733,11.136751,14.628602,22.838638,9.29868,-5.279481,11.464884,-1.2840834,3.261424,-15.724922,-2.4329283,-6.5585,-1.5479076,-1.3412148,-4.97369,3.9808254,2.0938444,-12.750295,-1.151283,11.768141,8.921851,-9.434963,-5.7927456,-9.5566225,1.5027001,14.444767,16.966248,-3.740059,-3.231313,-7.9814086,-8.371811,13.436168,10.144787,-7.110811,8.389288,-6.1359167,7.1372724,-10.581932,3.176829,-7.372409,5.9596825,-3.9412956,1.4046879,-0.5220214,-10.452264,-17.346708,-2.871436,13.308994,5.0887794,4.590792,5.8699384,6.7333927,-7.2897425,5.242013,11.363517,9.283246,-4.5798817,7.696748,-14.5854845,12.410683,4.6714087,-6.335624,-1.6217668,3.211048,4.665743,-13.164105,-9.441048,-2.8634872,-9.202653,-2.279435,-1.2159481,4.632472,11.95862,-4.9527946,4.183046,-5.3322306,-14.798084,7.5990624,-1.9829067,-1.7522442,16.455906,-1.271113,2.738514,3.6906717,11.257885,-7.4535294,6.2586403,-6.0833626,0.59444875,-8.546511,5.7683825,8.721978,4.431833,5.8884506,-10.979673,-12.782581,-0.8936079,-11.549344,-0.4644316,-7.422729,-2.4451907,-6.6447525,12.175638,4.963506,-11.049086,-4.8171296,-6.278145,10.892621,-4.3112845,-2.8710382,-8.027237,3.5920737,4.209893,20.085648,-4.0477414,2.749086,-2.4985974,-4.802593,-11.95411,1.9881946,-5.872576,3.5964217,-1.6958805,0.318685,-5.6518917,10.398701,3.881285,-0.5157143,4.8873224,1.7609226,-5.3172946,-3.2685885,-2.4017763,-3.293567,2.7487566,4.867301,-2.1001513,5.1764297,9.127704,-3.8284113,0.30131906,4.9247346,-3.8433683,-1.7562412,-5.3136487,-6.259944,-1.5290433,5.5609455,-7.381176,-1.3394513,-1.6742908,-2.3173552,7.203377,3.5094428,0.2602127,-2.8958333,4.7570753,0.36394677,0.471405,-1.3563954,0.9864628,7.639763,-8.787899,4.9243526,11.511598,-5.204736,-1.6601657,8.364781,9.04998,1.2660742,1.9272257,3.9741077,-3.5559335,1.5967124,12.899212,-0.2431666,-4.8379316,-7.093346,0.67404675,4.83515,6.0994816,0.53511554,-5.7463975,-0.4841835,-6.463054,-5.0414715,12.001315,-0.2455977,6.2525067,-5.435054,2.6904705,-4.8199534,7.3302555,6.1305428,0.8155252,-5.2288585,1.8837402,11.665873,0.8842559,-1.8171998,2.9460528,-5.971385,4.4330935,-0.17117397,0.29007745,-0.4763636,2.2601068,3.2421126,-9.108059,1.7391934,-1.9476522,-10.191065,2.2894812,-3.7934263,4.649434,-1.8982483,-0.8958399,0.10941218,-4.3988175,1.8544194,5.23883,-3.4947913,-0.27668685,0.39405042,8.888079,-2.1510687,-4.58108,-2.6963406,5.0230308,1.2443032,8.742894,-4.768273,0.47162288,9.080789,5.604946,5.658945,-3.360184,2.9196765,-9.166157,-1.1697912,3.9133599,12.494057,9.675156,2.456316,-0.15182447,4.4995265,-0.8816326,-3.6243186,-4.0438604,-0.12155633,9.801297,-2.015614,-2.1185658,-1.4851567
PMC4741799,-20.151543,-11.088572,-5.185968,-5.489323,-8.492794,1.0058721,-15.879954,-1.1207479,17.585098,27.889265,20.87187,-9.667049,-19.64558,11.969644,-13.130586,13.302182,-1.87978,-20.002218,2.9609356,-21.42098,-5.2503676,10.304428,20.715338,-2.021513,5.806892,-28.171741,-3.2354136,-2.1209457,4.9223886,-5.188956,9.079886,2.863355,-4.7505965,14.675484,7.136425,4.345727,-10.690877,-11.1187105,-22.171535,4.6481285,-21.218685,1.919418,5.3026795,13.7925415,1.963204,1.3229206,5.5742683,-9.485494,-12.5006485,-5.3559437,0.84716713,5.33601,3.151458,-0.09516544,8.0968485,-7.953973,-5.4076123,20.448812,8.151338,3.6330268,6.315708,-13.144001,-5.959553,-9.992093,-0.5757617,-0.03485746,3.1406882,-11.935149,-3.8433514,-8.836084,-2.8643847,-5.7231374,-17.017065,-5.1722193,-5.9224544,4.198143,-8.282039,-14.4907875,-8.799164,14.877525,-2.640076,-2.8166327,-2.710313,-12.231385,7.499282,18.258926,-7.6374645,6.2565475,19.273792,-4.887506,7.7672987,-11.637122,-8.061289,7.175666,-3.3141866,10.826232,0.9971867,-6.5658717,-2.0785306,0.21530186,5.1128583,1.485973,-10.626366,2.0564063,10.765136,16.608656,3.1505327,-10.884066,0.017144764,2.89665,2.9855633,-6.9453845,0.15824604,12.8899145,2.0792327,-1.1691482,-5.9075766,5.435337,5.4210644,3.2436514,-2.4254208,-2.2930157,-0.7468238,8.039794,-9.499785,12.95114,2.8378341,2.892961,3.222992,4.766312,-2.3281474,3.625721,-2.1118233,-2.7740586,2.2919106,-3.6380887,3.1457353,7.7471485,8.235135,-8.373316,6.600203,-9.115024,-4.692015,-2.214152,6.929707,-3.6647727,-0.20980144,-2.6487396,8.373062,-6.179809,3.1710696,-3.942088,5.3336105,-1.101779,5.9019094,1.4575396,4.994101,-3.2189941,-3.587474,0.6356403,3.216799,4.652264,3.231317,5.9724965,9.887103,9.5269575,15.701271,-3.8050938,-2.6376398,14.16097,2.0907474,4.5927553,-1.9790351,-5.0891256,-2.2325718,6.0214477,1.8549541,-8.2018585,-7.226936,6.629474,-4.1594644,-1.3717426,-2.4513705,-2.231881,-1.1980911,-0.48981476,-0.28110406,3.301718,6.9219823,3.4357214,6.5429993,-2.0273116,-1.8149104,4.9381366,-3.0196307,-0.34984285,-1.6604503,0.27541032,0.022455895,11.107333,0.17934166,3.5431194,3.117692,-5.268303,4.4059653,-2.2976658,0.27040225,-7.245791,5.3427973,1.3698913,-2.2753909,-6.9536533,-0.022693485,0.4322866,2.746386,5.56927,-6.1316967,4.9143834,-3.0640626,-1.9847522,-4.477461,4.0052285,1.595237,3.6703818,-0.9013109,-0.41415498,5.830309,1.5471034,-1.1890249,1.4647682,-1.822325,2.4446743,7.6161284,-4.65909,-0.8573323,1.356777,0.0055995877,-0.028375821,-0.85983723,2.1104968,-0.61513495,-0.2926494,-3.4954286,1.1146402,-1.5780905,-4.057124,0.26006085,0.80257183,1.5936445,0.21013612,-3.2741797,3.435745,4.1949196,0.23042622,-1.2025195,3.9944642
PMC4279395,-15.298686,8.991554,-24.4068,-0.974631,10.800672,-1.4029217,-14.835791,-2.5644739,12.432778,3.8271325,8.636524,-3.9749832,2.2899635,6.199577,-2.736398,8.513417,-1.3895673,-2.493525,2.0104346,0.38661224,4.5277905,-4.3281536,10.128075,-5.544943,0.19902965,-13.561372,-0.9918938,0.71770144,20.283953,-8.200211,4.890957,-1.3477479,-1.4184391,8.149884,2.0143683,-8.067204,4.8597846,-10.9296255,-14.942586,-3.5632186,-9.270606,-10.75351,1.3007765,6.271612,3.0376418,-0.053792424,8.2443905,-6.6002727,-3.6241424,-0.42140764,7.204287,5.6669064,-0.6848886,4.9964952,2.6811028,-1.8721454,-4.4664383,10.557729,-4.43533,7.566952,2.965393,2.7581785,2.2079766,-6.6869783,0.8434645,-2.584885,-8.282354,-3.2395532,-4.209647,-3.387494,-3.3698146,-0.00434077,-19.977922,-4.625073,3.0376132,-2.9716387,-6.5000625,-9.372217,-7.284964,11.553871,-0.40918958,1.152141,10.021263,0.856997,2.3842323,10.124786,2.2262518,1.326081,10.766406,-9.93659,8.7887,-7.615402,-1.6124132,7.840901,-1.0014764,8.072495,1.6532272,-10.7565155,2.0495799,2.4543662,0.24558325,-5.096925,-0.07642981,-5.9508343,3.5505545,7.09333,-4.531438,-3.6631756,-4.715543,6.2159476,2.8404942,-2.3530116,1.9305906,4.796998,4.2248693,7.0886464,-6.3246093,9.029244,-2.2715406,6.91666,-4.209717,-1.8067662,-4.8865485,6.4757586,-8.643425,7.8946915,4.2721925,7.904583,2.6705441,-2.1464193,3.799525,2.5108986,-3.7595313,-2.0833738,-3.1893394,-0.06556665,4.9407325,7.446085,6.906274,-7.714418,6.913756,-0.58576554,0.89458984,-3.3216012,5.938923,-0.0046903603,-0.8238554,-4.465951,1.5817555,-1.1419038,-0.07693929,-4.1450815,3.250986,3.9310093,5.9947104,-0.8498733,0.06760002,-2.3861337,1.1532295,0.084670745,5.5340233,4.4256096,-3.9355304,5.5139923,1.6668004,4.2307687,7.71988,-4.9914374,-4.152828,3.2309308,1.0245309,-1.1078424,1.9083716,-3.9130745,-0.8772074,2.6659722,4.615163,-1.456874,-3.2595415,2.2244377,-0.75365025,-0.67863894,1.3779922,-3.1014392,-2.1456676,-0.21747907,-0.5113014,0.42449987,7.243075,4.9150248,-1.0966111,-7.895368,-0.21433632,4.311427,-0.68508184,3.8093214,2.2691903,-5.808631,-3.8307543,4.632559,2.97342,3.4780698,0.21071741,-3.5189238,5.3713713,-1.5709645,-1.111461,-1.452912,4.42849,3.078925,1.1111565,-2.9730446,-1.0137115,-5.681799,0.7425603,-0.274948,-1.0337741,3.6547146,-0.7209148,-2.0049603,-1.1409249,2.3922298,3.4232588,0.9593319,-2.8990376,0.22579986,3.1835308,0.8008723,-4.1078644,1.912582,-0.033623572,-0.32188222,1.9265671,-1.4984167,-2.6785576,3.9669719,6.9002786,-0.60482293,-0.17361967,2.604437,-1.352582,-0.31389377,-0.0012825438,3.5616837,4.29206,-1.7195216,-0.21737602,1.5594996,-0.68302345,-4.3942666,-2.9507663,-0.105169766,3.2080328,-2.2560573,-1.7988697,2.486078
PMC6434498,-13.624133,-1.3128827,-26.08096,0.3001239,10.273492,19.933456,-9.125646,5.9708586,-5.724023,-12.148685,-13.113576,-3.9523125,12.911556,1.0125843,-20.138664,23.311426,-12.076621,-2.2790666,-1.3345109,6.6239295,0.4569397,-3.2198536,2.3221717,-15.145886,-6.3787155,-2.9977732,8.44718,17.142918,5.4402742,-7.5948353,14.472529,18.785099,-0.82090795,4.4081836,10.03438,8.777187,29.036558,-11.0184145,-18.692093,5.9628654,-12.492702,-8.105443,-4.0057607,5.002436,-4.375534,-1.737767,-7.771215,-11.103565,-0.8538583,6.2785163,6.6588645,-2.0087626,17.08952,0.47507727,7.8788414,9.565487,6.066442,5.7278366,2.7104452,1.104705,3.870437,10.75988,-6.1196027,-4.220652,9.517318,-0.42017862,-0.16120774,-9.940515,-11.24821,9.985448,-17.617361,5.6370573,-15.322371,-5.135355,3.1711006,5.143638,-8.550906,-0.6229861,-17.13492,8.120693,-2.039239,14.329052,8.029429,-4.2305713,-4.2555766,4.0621886,4.1487637,0.5062563,8.544011,-11.35317,8.1705265,-2.1246238,-3.5263398,-0.17270504,14.832022,0.84850967,-0.082824744,-2.3987584,-2.1667328,17.134361,8.184723,-13.8036785,-6.8905034,-7.7463923,13.726262,10.980928,6.4567347,1.2564011,-4.9198413,5.1720033,3.1365237,-4.538157,4.420842,-2.3130198,0.34162295,10.51796,-2.5834637,13.48126,4.205705,-1.5510457,-15.449147,-12.851244,-6.333361,2.599187,-7.0762305,0.14758663,-4.858665,8.567384,-3.4948273,-5.2590203,14.942503,0.64641356,0.96939725,-2.648239,-3.275814,-10.41485,2.7554128,-0.38011232,5.7325716,-9.325197,1.4253697,-2.2231734,6.2467046,-0.6961401,5.0685797,-1.3692703,-2.053476,-12.665255,4.7045846,1.7173716,11.292121,1.9710207,1.463745,3.5802758,9.086772,-0.49853545,-5.1751757,-8.539478,0.05779856,2.2045608,12.409297,-1.1164742,4.045843,8.61694,3.998027,5.1092916,4.4418817,-2.5172944,-2.5329647,1.4694446,-1.628035,-5.697142,2.0672743,2.2294905,-3.1816978,4.197299,8.654021,5.482993,-7.141962,2.7851696,5.357161,10.738469,3.436884,-2.766718,-4.1431217,5.4429407,1.2249672,9.79932,13.62107,3.1006346,-9.209679,-9.946051,7.268014,5.530232,0.9369969,8.013485,0.7692024,-1.1247733,-3.4204786,4.088009,-4.799022,0.8220722,3.4409158,-12.005738,-0.6226441,4.382115,-0.49388444,-2.4846065,1.9595679,-0.37571275,-6.0356255,-0.19844432,-1.9545369,-10.941761,4.7024918,0.5135743,-5.473267,5.61146,-2.56971,-7.1600475,5.2813063,8.274289,-0.5558982,-3.623027,1.9916646,-1.6738296,2.7260447,-8.523884,-4.867971,2.2613606,2.8449209,-3.0079234,5.331638,-2.1411848,2.3172317,1.6839166,-0.4794762,-3.4020538,-6.8078218,2.6073961,-6.0506945,3.9708517,1.897143,4.6611905,-0.5277817,-1.9455931,0.29791594,2.3916895,-3.437845,-6.549944,-2.9713635,0.4329326,1.4202682,0.07034846,1.6520869,-1.6562874
PMC9444714,-5.7789598,15.776042,-10.745802,-19.894995,5.2402835,11.237714,6.9894094,-7.889324,-2.4755394,7.721831,-10.529885,1.363057,0.9133885,9.171378,-8.598412,3.5005677,-4.640035,2.094154,1.6538476,-3.6109967,-10.7395115,-6.13089,7.38774,-22.814997,-20.507683,-23.325853,-4.523131,3.1299832,10.211842,-6.921506,5.306219,-2.6346433,1.3317342,7.5614524,-0.12708716,5.75663,-3.5942135,8.631109,-10.491793,-12.292619,1.2314321,7.825836,2.6190038,-5.5888867,8.06343,10.36916,4.307638,6.070915,-0.78919643,1.9946855,6.274154,-0.34951058,19.1599,6.011733,-8.687882,5.6627736,-14.083304,0.56198466,-4.4920506,13.556721,2.2444105,4.3926086,0.040496852,-2.7341943,-9.774987,10.747815,6.572459,0.70025784,-2.0434139,3.1468427,7.055808,6.12828,-12.010191,-1.8175284,1.5258712,-2.6267252,0.32160413,-11.474093,-2.9403517,4.025895,2.6083205,5.22241,-0.9367577,0.3578985,-3.5878336,2.3296921,1.355896,-7.394762,-1.8527011,-0.21816315,-4.092147,-9.522617,-6.416561,5.2251005,6.888253,-9.989361,5.931105,5.282538,-3.4116073,8.346036,2.5297422,1.6186802,4.5550575,-13.363803,4.611417,-3.628038,-7.986789,0.22095847,-5.391499,3.925819,-1.3287201,3.7501347,-4.8599,-0.930871,2.866087,0.7295855,-3.3617496,-2.680449,10.264478,-0.62928003,2.0663085,-2.1904151,-7.745841,-0.9266014,-1.9630404,-1.3729137,-3.0132108,6.1677985,-4.003222,-1.4237598,3.9305315,1.1551253,-2.319671,-3.5356922,6.1295276,-7.1316333,3.5152285,0.8279784,0.8919266,-1.4448761,-4.7026005,-0.9092513,4.051108,4.908794,-1.2530439,-1.8472139,-9.0034,4.9535203,1.7812682,5.272781,2.0109627,0.2583538,-0.30669448,2.4609218,2.5919669,6.221344,-2.7139661,-0.8561921,-7.3521004,-0.30572286,3.557326,0.88619614,-5.844361,8.054338,-4.8501096,3.8007462,-1.3385295,-2.1340263,1.0143192,-9.642119,5.479857,3.3206718,-2.5928843,-6.0270133,-1.6077694,1.7037735,0.17607664,0.59056413,-0.59869033,2.0260463,-7.136848,5.593145,1.1587597,-0.5730531,-2.6635764,-4.410132,-0.735528,-0.6663137,6.716051,-0.3862321,-1.1838851,-4.81073,2.0705473,1.0974016,-0.698073,3.2394369,-4.5533385,4.911227,1.5261903,-1.8208925,3.2996314,2.557548,-2.3744712,-3.5951807,1.2922207,-2.3510654,-3.6746488,-0.53337777,-1.0568542,2.557833,0.37919992,2.8280702,-2.7226505,-1.6752001,0.75130016,0.99425685,1.1289897,-0.91648257,1.208697,-1.2878132,-0.93007547,-0.90010107,1.414919,-4.253331,3.6066914,-2.4176567,-2.2766573,1.6441485,1.5340722,1.3842585,0.7362723,2.979702,1.4021878,-3.667996,2.462121,-0.37309262,-1.584068,1.6273909,2.2024567,0.022721902,-1.7276957,-2.04482,0.8546049,2.2938387,2.3979561,-5.440337,-4.782028,4.2156343,1.616336,1.6642771,-4.639373,2.420928,0.34587917,-0.23324637,1.6119868,1.2927868
PMC3646490,4.0118213,-10.783591,-5.872615,3.916623,22.573387,-2.2951515,7.4216843,-4.163851,7.2288003,-2.032048,-4.1276016,-9.263345,-6.821193,3.7201693,-0.27696517,11.653054,-2.5254698,-5.0996704,11.235867,-7.2785873,-10.951163,8.099351,7.8623886,-16.357779,-6.210257,-12.35822,2.996143,3.1811488,14.5755825,-11.8100605,1.8536084,-3.4311786,2.7750309,10.029165,10.076217,-10.886616,3.891222,-3.8538933,-0.71010596,-6.2745,-5.7705574,-2.1749685,3.2622793,-10.0412035,2.276165,-2.1904747,-6.823574,-5.317767,5.931574,4.549585,13.279807,14.204509,4.7313557,6.2646914,-4.037353,-0.029356573,8.072666,8.481405,-1.8655151,-2.3802595,0.5499388,2.0028574,-7.960432,-6.2979026,2.1831598,-2.218013,5.0232334,-5.692263,-17.650208,-5.559893,-5.2247596,3.9322608,-10.600719,1.9222353,5.909667,-5.446278,0.9050766,-9.858365,-12.7288,9.939627,-2.861151,0.30027714,7.9861097,-5.693503,4.4761763,5.534788,0.53331107,-2.0190217,3.9922893,0.48407102,-3.406993,2.2441428,2.776176,-1.0623559,2.7459629,5.851999,-5.9641347,-1.1857569,-1.0691563,5.1189747,-1.4077474,-1.2688649,-3.8315723,-9.449108,3.260252,8.604633,-3.105593,-2.0129254,-3.9309037,1.17321,-2.098613,4.875205,-4.7267337,-1.5133855,5.00765,12.938882,-1.4479196,2.6257644,1.9076618,-1.7033376,-8.193148,-1.9828281,-4.690307,-0.969356,-3.3704207,2.3492084,-1.4072664,4.786723,2.77569,3.798301,6.4488826,4.971556,6.567976,-2.8571076,1.9740397,0.13416103,-2.340031,5.5688415,4.7232847,1.7438978,-0.53221184,-7.141528,-2.7135322,2.8046305,1.8971215,-1.3378211,-1.4241962,0.6648362,-1.1025277,6.0163736,-4.702566,-1.5563589,-2.9564862,3.8852906,5.5367885,1.570772,3.0218756,0.53780985,1.9284272,0.52902734,2.7861588,4.0552053,-0.5583409,3.3820977,1.1456065,2.8466456,4.586178,-0.28529462,-2.0915623,1.0086932,4.7340174,0.31650883,1.0930498,3.372117,-0.3859673,0.69646555,6.476837,-0.03589579,-3.659006,-0.2818204,-7.639474,5.144946,4.5470037,1.9626119,-5.01949,-1.3234266,-4.0580525,-3.8144681,6.3091083,0.91188115,6.5277324,-4.752447,2.022891,0.079462744,5.067266,6.305815,-0.88820964,-1.8404506,1.7827706,6.081427,3.1369348,-2.3430285,1.6174104,-2.0281775,4.059509,0.46070242,0.19769274,-0.47399005,-0.9258874,-2.0380619,-6.2835608,1.737318,-1.9705539,-1.6197729,0.67181385,-6.4709215,0.87544954,5.4349833,0.16087967,-2.1188655,0.41151243,4.2332196,4.2123585,-0.32969376,0.57088506,2.5233452,1.999364,2.0040164,-4.211864,-3.1946633,2.3298886,1.5969428,6.3046927,-1.2223474,-2.167023,3.131562,2.662892,3.5150867,-1.7406995,1.4959248,-2.8460255,0.56353366,0.8919966,4.357134,5.4812875,-1.5920852,-3.2362406,0.8625067,3.09451,-2.5689242,-0.28234136,-0.5233625,3.3266366,-3.0104723,-2.8190863,-1.1560284
PMC4485617,-15.255718,-3.890151,-19.753347,7.2560244,26.644516,-3.4013398,-6.2096424,7.9803066,-0.55516416,28.54037,6.0590053,-2.2409737,9.156157,5.543563,7.942173,35.59376,2.2605095,-1.6024709,-6.781696,-12.2886505,-1.8299192,11.237259,1.7245767,-10.544208,-11.810642,2.2378707,-18.669744,-12.164681,6.651346,-17.881931,3.0469146,-14.448486,2.4644825,1.2969289,14.6744995,2.652064,-2.3225768,-2.4071383,-3.7591221,-0.019397398,4.2744627,1.3653487,-1.9561931,-6.3931727,6.500545,14.508366,4.2466826,12.599463,-5.935848,13.784937,9.725305,-10.257683,7.814209,0.52458245,-0.7241542,-2.566352,-15.662218,0.029931312,-3.1228402,0.8853291,-7.3845854,9.200395,2.79175,-3.701429,-10.066472,-4.4018335,1.2774305,-12.551719,-5.5691013,-9.008821,-0.6409501,-1.3917401,0.6956576,-3.1387591,-7.246129,3.2197301,3.8941123,-10.904446,-2.888833,14.266746,-4.7530103,2.7852478,12.343977,-11.314486,-4.1791677,-4.434045,6.060652,-2.1158638,4.9340086,8.848782,-7.286516,4.8355193,-0.45362794,4.3503203,-4.0130324,3.5267556,4.063104,8.647287,-5.903569,11.070654,2.0801153,5.4872255,-4.775558,-13.008492,1.2699047,-3.2461782,4.6517777,-3.9758587,-13.797945,7.0339723,-14.235364,-13.512131,-8.076814,-7.756183,-13.053419,12.866675,-7.2010565,4.8198223,2.053438,9.460951,-3.7201464,5.832588,9.546482,4.3041224,7.2293887,1.8174645,1.4021131,-0.7464545,12.249299,-0.9509244,-1.2529368,5.991338,0.29781514,-5.5567837,-9.310578,-10.456119,1.5807238,4.1952367,0.87762046,2.3266835,-8.078384,-10.1741705,1.1503285,2.8933961,9.623741,0.78369063,-5.44693,0.6784861,2.733017,-1.7481259,-10.082932,-6.1323586,0.13484073,-9.510357,8.221334,8.387623,4.029195,0.5314656,4.7803993,0.5248914,12.772385,1.8148528,-1.746643,4.775803,-0.5106387,5.1187043,3.000575,4.1531563,-5.0953608,-3.3031886,2.435537,3.378444,2.0068862,1.6235521,-2.8161676,0.6897243,2.350378,-2.789324,6.96725,1.0727644,-7.0428705,-1.1575615,-0.8765218,-3.7720559,-6.9143724,-3.0207248,-3.8475227,-8.390934,3.7640076,4.9122076,4.5304146,-2.1039543,1.3015763,-2.3190284,-9.295859,2.5405083,-5.305512,1.298151,-1.0777491,8.761177,3.2224915,1.6533651,0.26048964,-3.873555,-0.38982847,2.5545058,-1.3664672,-3.246699,-4.1595426,5.569609,-5.536496,-0.3453002,-5.5276933,-4.917539,4.943526,-1.7392029,1.1730198,1.9942862,-0.040801123,1.357714,3.5319188,8.313189,0.5288617,3.0625985,-0.6693194,1.2579322,-5.56184,5.668992,-4.2123103,-0.63181126,1.572771,3.171485,0.061126634,-1.0293809,7.380036,0.9946762,10.437111,0.97905797,-5.2556067,2.09609,2.0492604,-1.429444,5.3444004,-0.30807272,4.0102673,0.12925275,-5.8137603,4.157274,-0.079200074,-0.7976435,-2.4054444,-0.15447891,4.889065,-1.7475828,0.1328683,0.98193574
PMC5295444,-21.34852,7.0532255,-21.911537,1.1311079,21.884415,6.7153506,6.4282026,3.8290682,17.234571,18.011211,-7.677022,2.8129964,-0.54693496,6.8237157,0.06840643,1.1030183,2.7785237,-13.198573,-3.8050642,6.8212214,-2.535249,1.3236156,8.570877,-0.98456997,-6.251216,-7.24511,-10.935097,5.148818,5.567462,-2.007948,-4.3967075,3.356566,-0.25232387,6.7414956,-0.42379645,-7.972655,11.565376,-7.5765123,-6.260847,-4.455569,-6.198496,-11.09594,8.644289,-1.8104368,1.7124029,0.9683556,-0.64038444,-4.437147,0.39972773,-2.301509,5.9195375,11.313253,2.220134,9.424074,-0.7275904,8.471663,2.7612252,0.7678839,3.521665,5.339533,-1.4046541,-0.6591569,-8.822247,0.9475339,4.331873,-7.044626,-0.60458106,-8.86025,-2.3530087,-2.1626368,-5.7675586,4.4594035,-7.764042,-5.702505,0.8937715,-6.7405343,-0.6654833,-6.835989,-2.7327633,1.5992469,1.6689137,0.64130676,3.3527439,-4.816421,-1.1157187,1.4152801,4.6597333,-3.3936014,7.350696,-11.202842,-1.285213,-0.32695892,-4.5861564,6.6672373,4.3718734,-0.21658644,0.5023194,-2.0497642,2.4986067,0.82628196,-0.18827339,-1.9841152,-3.82695,-8.472231,2.0652435,1.757342,-1.7852365,-5.5894575,0.4770725,4.2583756,3.6722243,-1.2389468,-2.832319,-2.837284,3.8583527,5.4896255,1.6298077,2.61747,-3.7072961,3.085556,-8.278103,-3.0377476,-1.8090608,9.018454,-4.8932824,4.1041307,-1.870275,10.76032,0.06678194,-0.5885689,5.014559,6.796036,3.405288,1.3654635,-4.4479923,-2.9276497,3.7895713,6.2178817,2.4128652,-1.919992,2.7150743,1.8203706,-2.0776236,2.3194096,-2.418711,-2.581649,-0.9605049,-4.108201,3.4956102,0.94588697,1.4639757,-0.6867939,-0.004968117,2.262681,4.80198,4.5509024,-4.755541,-2.1800027,2.440707,-1.1236475,0.08529106,2.1096988,-1.9263455,9.599352,0.66736686,4.6355166,6.9330845,-4.791222,-2.7906473,0.84180987,5.2015867,1.1677351,0.12581988,-1.8747728,-0.6447854,3.560351,7.984017,1.5158912,-1.883302,-3.3887887,-1.9720033,0.44546077,3.1220465,2.7262063,0.38856658,1.5335817,-1.8277811,-1.8640224,6.475959,2.7119403,-2.455788,-3.3637233,3.0803254,3.2577195,-0.3233286,7.229079,3.1021636,-0.94660735,-2.9340875,3.8231235,-0.19187483,1.0079981,0.41023746,-4.748542,3.4477391,0.37381896,-1.0083553,1.5963767,-0.10079401,-0.037654195,0.090906434,-1.4996631,-2.6331382,-2.27875,-2.3467867,-0.5721572,0.95360214,-1.722871,2.384927,-2.499203,-2.2938817,1.3336701,1.8849915,2.5944638,0.33571807,-0.7020526,0.8540281,-1.6082265,-3.120494,0.77162594,-0.4508106,1.1813747,4.084632,-1.9524509,0.023178518,2.6735046,3.6818402,3.4319785,-0.23079088,4.8264813,-4.63145,2.4852352,-0.8358311,3.3247852,2.6815162,-1.3696744,-1.5338037,1.70728,-0.30559188,-3.26776,0.10799381,-0.21733928,1.0899743,-2.2174475,-1.3146865,2.9528995
PMC5078054,2.8915265,7.9988017,-23.349327,4.8027773,7.940499,4.635776,10.636125,-1.1516752,6.0248156,-2.6804168,-1.375114,-2.2182696,13.278604,4.7714086,7.55936,4.676727,-11.090395,-2.64357,-1.1657988,0.029352332,1.3886026,-5.5702095,3.59117,-4.620535,-2.162302,-12.533775,0.8347201,7.645785,7.5910587,-6.011207,5.666058,6.269362,-8.601631,11.2053,2.526065,-6.104059,-0.667848,-0.46068293,-3.3041234,-3.6496272,-0.18918952,-9.223361,2.4711764,-4.2733173,1.1684015,0.34427562,5.5306187,-2.1757517,3.3819385,6.6351137,10.330206,7.3874335,12.1874485,13.284574,-1.7849263,0.5626811,-1.3269968,-0.93234,3.8750353,10.331959,-2.401268,2.483169,-4.8604813,-7.3418045,5.296579,-9.345899,1.7124691,-1.756946,-6.968788,-6.6644545,-7.8836455,-1.059825,-9.390576,-0.29802367,-1.876424,-3.4227262,-4.1683598,1.8616924,-4.5716615,6.721296,0.28804156,1.1612124,9.420862,-3.1098282,-0.3387878,8.203419,4.8278346,-1.6553068,3.9405544,-0.22102818,-3.9770339,-1.807817,-2.594814,0.05607881,4.021004,6.089497,-1.8711624,-6.749604,1.2549905,1.9453117,-1.2028543,-1.0576102,1.6933771,-7.8982735,3.261715,5.32087,-0.024886692,-6.254999,-2.1227605,4.3233047,3.5632706,-3.6664772,-5.6343822,7.249973,0.6796187,10.483791,-10.336472,4.5439296,-3.9070187,1.2633452,-7.381825,-1.8838338,-3.490519,10.539324,-3.9207711,3.6905315,-5.550122,3.479263,1.7393512,2.1213133,2.368841,3.5349283,2.0308917,0.12695293,-2.074907,0.52011836,3.7153494,2.5589137,3.2947266,3.6623557,-1.1283287,-2.5900636,-3.673065,2.6897128,3.3019116,1.5177436,-1.979588,1.6279069,-1.0991637,2.1134977,-3.547081,1.3017217,-0.56662774,3.9957428,2.6508975,4.7257724,-3.5825887,2.278829,4.146053,-4.5480757,-1.5787277,0.6862554,-0.45638373,5.230194,-0.13479933,2.0036757,2.994327,-5.805328,-4.647849,5.1281967,4.733817,-0.8764168,2.0053492,-4.3759785,-0.031185834,0.4693556,6.0395093,0.3964534,1.1006995,-2.572611,-1.3648088,0.108862706,-3.2961123,1.1414706,-4.7247777,-2.921146,-4.9233484,-1.3455421,8.338437,2.998625,-2.1895413,-2.532472,1.3516989,4.0217023,2.7056587,7.5557556,3.6114182,-1.1177117,-2.6849802,4.61868,1.9756957,3.1713383,-0.5421747,-5.307978,0.1622449,0.01905381,-1.2034526,-2.8335338,-2.0460806,-1.4161055,-0.027296558,-4.645933,-5.4565554,-4.204961,-0.68379265,-1.9626712,0.2136724,2.217769,0.33016902,-3.653894,0.25709602,3.371244,3.4324224,-1.2352558,0.82624733,2.2587757,2.9777584,-3.6519237,-3.5830157,2.4181502,1.0139631,-0.5964546,3.991815,-1.8929178,-1.9041392,2.2738206,4.314784,-1.456788,-0.27269503,2.8709903,-4.586903,2.36624,0.05676434,6.0764832,2.4701946,-2.7399197,-3.2817807,1.1116024,2.4703918,-3.9538522,-0.69215363,1.0575738,4.927957,-0.365916,-1.4636025,3.9336293
PMC5341839,-14.711153,-3.4038262,-15.786766,-1.9215357,11.114228,7.095976,-7.204271,0.10524461,-2.1506996,17.16027,-7.292981,10.749119,13.416759,-1.0495645,6.4054832,12.161323,3.104468,-19.189152,3.7265775,7.7114973,-1.4000509,9.591265,5.835054,-2.3475132,-4.541566,-11.133469,-5.266019,3.8298044,5.3145733,-11.212954,2.194012,0.004733437,2.645577,8.95851,-3.4061837,-11.248508,-2.464314,-2.7349913,0.7399097,-3.5484753,-6.589355,8.71489,-3.0990117,-7.9365544,2.2597792,-6.697895,-7.0608606,-4.306824,15.51693,4.351308,5.887489,14.205749,2.3008735,9.098974,6.8429084,0.6767197,3.2749438,10.269497,-1.8543899,-0.044144914,3.8178432,-4.479058,-13.283869,-2.3509457,0.39195898,-2.975361,4.2564173,-12.204329,-3.7562366,1.1973331,-7.176051,-4.2921643,-6.518966,-8.042759,3.0340362,-5.5472255,-8.018563,-1.6873122,-4.0500393,1.424467,-2.7294538,-3.5628872,10.26886,-4.9009,-8.387243,9.3284645,6.4653974,-5.769487,6.9164925,-4.460899,-1.3825544,-8.415751,-8.719362,5.514896,5.120424,5.9484353,-5.8636475,-8.886074,8.021154,-8.607008,-4.70207,-1.8260446,0.58260524,-9.699989,7.2866707,1.0721694,0.53583264,-12.311509,4.9665065,5.686903,6.2450633,-1.0129341,-7.5903935,2.0804875,7.334653,9.918766,-2.3447266,6.5697947,0.7951238,5.094092,0.2841563,-1.0243571,1.2123209,8.278749,-6.29258,5.320257,4.4840374,9.017328,-1.0468227,0.46601367,6.023616,2.908999,6.4331717,6.0085926,-4.0652804,-7.223412,3.503955,0.154004,5.9530354,-6.289017,10.0301895,-5.092667,-3.8558,3.0692315,6.622813,-4.033877,-5.5995936,-3.802081,4.233591,-3.7560487,3.9970295,0.5106191,1.4611142,0.10087791,6.8432584,3.6969473,0.24494322,5.5340185,3.7506313,2.222407,4.692265,2.038908,-2.6344059,7.3594155,-4.686224,-1.4222348,5.825016,-6.486646,0.73538846,3.610127,5.4492416,-4.3033423,1.1536483,-2.1538384,0.0004697327,2.8872137,3.8418076,2.753859,-5.292663,-4.2931657,1.5108509,-2.5200608,2.972067,-1.1539897,-3.7249541,-2.6176708,1.9436551,-1.062069,5.272885,-0.33191207,1.9581269,-10.814616,3.0193288,-1.3111025,5.8983364,3.181207,-2.849847,-1.8289638,-2.3098464,4.107163,0.8267235,1.6300819,-0.919173,-7.155756,2.1110892,0.5667134,-0.4406516,-2.84001,2.1713398,1.0105184,-0.53140414,3.1854072,0.9814397,-2.7765005,2.0541894,5.1000314,0.20395239,0.20561689,2.1259675,-5.581513,-3.3429964,-0.85771126,0.38964537,3.7705684,-1.200614,2.2504227,6.141618,-0.14592935,-2.3766448,0.70790994,-1.6878059,0.0725616,4.4367933,0.6694041,1.7658204,1.9617128,4.7729044,5.29242,-0.022071714,3.6060526,-6.340535,5.2777934,2.2206745,1.470655,1.5741642,-0.9255241,-4.7972417,2.6004875,1.9927179,-1.3820335,-3.5002398,-3.2895486,3.150479,-3.818406,-0.3178344,2.6906078
PMC4466659,-9.869466,4.077513,-25.933907,-13.240851,18.717552,11.057349,-3.981055,-1.4296616,3.3781517,18.356867,-7.225405,1.1091579,7.7649817,1.7775364,13.355092,8.840848,4.1060205,-0.8118336,1.0812422,7.12499,-1.1678915,20.337358,5.3416023,2.303385,-5.2659845,-13.821586,-6.162638,4.672573,1.6594936,-4.5192513,1.7324892,-3.4684873,2.236139,6.782035,-0.46653783,-1.8167548,-1.5520058,1.6016996,1.8933893,-4.9455724,-3.8786085,3.9896116,0.43986008,-12.379651,-0.77207154,2.2082655,-6.6287713,-1.5046704,4.872152,4.6418476,5.4964767,14.289196,2.03499,15.484412,-4.6533036,1.1221143,4.150827,4.52194,1.1165276,2.0928988,-0.013297183,1.6472111,-13.417739,-8.36996,-6.3497267,-3.804208,7.548817,-9.091025,-3.2387931,-2.2426481,-7.383542,-3.6257124,-10.7645035,-5.0457854,2.303641,-7.019722,-4.439448,-2.0787635,-0.99594396,1.4118536,-0.85405505,-8.267449,6.744263,-7.171599,-0.56404126,7.0907254,-2.8280516,-4.9642024,6.71673,-6.6009445,2.9758468,-6.830068,-7.845958,2.6445682,2.305045,3.8205693,-6.7431507,0.19337465,-0.67150044,-5.52169,-1.7051743,3.9040918,1.946983,-10.817054,9.047288,3.9172075,6.2069597,-6.9262204,-0.54233134,5.6227717,6.8244247,-5.755949,-8.088173,-0.13555576,6.186398,8.816309,-2.2375867,1.8138989,1.6081376,5.06489,-2.9581103,-0.2875579,2.1592114,3.8243563,-5.248999,3.4313111,3.2711732,11.421303,-1.9326932,-2.9496362,4.820358,3.6956303,2.3670382,8.337459,-7.1086736,-5.7858496,2.816827,2.5728276,2.7024908,-4.6187816,7.666877,-0.882492,-4.119072,6.102552,2.8865747,0.7709998,-9.485882,0.5920605,3.0277438,1.5712172,1.0676453,1.1657981,0.79603106,0.7406227,3.403246,0.8448493,-2.1120412,3.5976307,1.9082427,2.2064593,0.88902175,0.2072531,-2.9868464,3.255872,-3.8635268,-1.9095699,3.057413,-4.243827,-1.7285261,4.2632666,4.5860977,-8.305459,0.54387146,-3.3324144,0.7198805,2.510153,3.2136757,-0.18434083,-4.2312984,-4.305133,0.5904309,-1.1246964,5.777253,-1.5623919,-4.0410447,-4.9266367,-0.8649749,-2.3044882,6.741567,1.3921483,4.2364593,-8.62074,3.199188,0.36379367,5.492477,4.2128644,-3.5447388,-2.4576228,-0.9339293,3.9553916,0.45493662,1.6335672,-3.1511052,-4.7511873,3.293008,1.343273,2.0512667,0.6297986,0.16477816,0.028632544,-3.214906,6.620863,-0.64092594,0.06654887,1.8860837,4.223931,1.8712821,-1.7393702,2.9851491,-3.999915,-1.0547152,-0.62090653,1.6202675,1.5326036,-1.5299175,-0.7027453,6.1652646,0.56531954,-1.3377626,1.3824493,-1.9154972,2.1078649,1.2207679,1.7573103,5.2875032,-0.9812192,4.1101823,5.085847,-2.2005243,5.6235495,-4.2216454,5.309503,1.050195,1.0318033,1.8602749,-1.7515366,-5.2592335,2.8152728,2.0118408,-0.69460386,-3.6318076,-1.0428975,3.2746205,-0.5975094,0.50412685,3.3632393
PMC10020002,-1.6723773,4.881213,-14.989632,-2.5355294,27.807285,9.011779,-2.6847053,-2.1101704,3.3296034,5.8036714,0.701569,2.4171026,9.704242,2.35357,1.7527075,10.939504,-2.4932947,1.2059623,7.3192816,-6.8870316,-1.1704012,0.73174435,-1.522414,-5.638548,-14.624518,-11.416344,-12.988485,4.491859,16.881594,-12.406882,5.128414,-0.29164484,-9.440351,-0.14067465,7.4147725,-2.55869,6.956584,-6.363748,-5.397648,-8.763578,-3.5168533,-11.214187,1.5424229,-7.725543,-1.0405103,-0.2596952,-9.0249815,-5.112397,2.6451325,3.239461,9.793692,16.954361,-0.33886,1.4281183,-6.4592786,0.15555415,2.8500557,7.6188884,-2.2257016,4.5211015,-0.060066476,1.2015145,-2.6850812,-7.397994,0.67253524,-2.659624,2.8677082,-3.8731904,-12.010187,-2.9656549,-13.559382,3.4803104,-7.8090553,-3.0995991,-1.4077895,-1.9994264,-2.638419,-7.1402493,-8.392757,9.565526,-1.3450918,-1.6913755,8.483668,-0.58712065,-1.0184127,10.632432,4.1757617,-3.2067697,11.710507,4.4174075,-0.5254268,2.361243,1.9564112,-3.0162022,1.7021705,-0.42694455,-0.08580463,-2.3117335,-5.241462,-7.8536606,0.18407589,-3.4893248,-3.5318449,-2.0492709,5.0632052,6.6571198,-2.9513447,-0.18545216,-3.220411,3.1879666,-3.4329517,0.6406623,2.5440552,2.269562,3.544229,15.168636,-1.6096764,0.94981724,2.6750965,-4.8243957,-5.8765874,4.300325,-0.68305165,2.0217366,-7.345407,1.9062332,1.4269418,5.135672,8.422476,0.36567277,3.7944238,-0.7584352,-1.312609,-4.5764785,1.7674974,1.0232239,2.3248713,2.2948246,-6.5019927,9.26917,2.621378,-5.6186423,2.4793823,2.6827974,0.5661055,-3.2049372,-1.217318,0.4176252,0.42461503,4.783517,-3.433071,-6.095233,-4.616925,-0.9739269,3.5778935,-1.1295341,-0.11543291,-1.4611065,-0.6374974,0.52120477,3.095021,4.403486,-3.7168348,9.87944,-0.030799733,-1.3242363,1.7368498,-1.5588641,1.0467547,3.3817837,3.2608235,3.6821404,2.064642,0.5938337,-1.6269279,3.3989184,4.4959717,-3.6198936,-3.2688923,-0.60365045,-1.760524,4.262213,3.0624552,2.6748457,-5.6011868,-3.3932974,-3.335548,-6.6586366,9.633404,2.237491,6.309601,-2.3412035,-1.2783706,-3.4772682,0.5618366,4.016948,-1.4441556,-3.9921129,3.3999476,9.523381,1.5689113,4.3215837,-1.6846,-1.0785381,3.0668688,-4.205232,-1.6370597,0.22093584,-0.82582736,2.1116405,-7.4358354,2.5682878,1.6089743,-2.8014214,-0.932306,-3.0926068,0.29315817,2.0775378,0.14699315,0.9660232,-2.523793,4.102996,3.3474224,-1.8986906,-1.4842514,0.87839764,0.7773668,-0.44042772,-4.1865063,-3.247659,2.462639,-0.9476455,4.69928,-1.8357517,-2.6636193,2.365043,-0.25690687,4.1038485,-1.5925608,-1.2571056,-5.013099,-2.1822932,3.1663234,5.1517625,2.6744778,-1.4440391,0.019537563,0.5741618,-0.5680258,-1.1907071,-3.4920025,0.709568,2.8747568,1.1873211,-0.333669,1.6468593
PMC8351376,9.979434,-12.227724,-2.1610696,-7.466433,16.0113,2.3687127,-4.3917136,-2.5729904,10.102325,7.925266,-4.2799563,-10.203954,2.030458,12.194057,10.720993,7.2450747,5.3788586,-7.5124516,3.0971339,-9.887603,-4.545558,-0.5670495,17.025045,-9.48542,-10.375136,-6.5612864,-6.0581465,0.96200395,14.239273,-9.903977,4.4442477,4.6042175,-0.20821774,-2.460525,12.153111,1.2113714,6.2629085,2.121833,-5.3094983,-6.1500893,-11.2211485,-10.096155,-6.412816,-3.8507237,-1.1922735,-0.57909274,0.079807535,-2.6858041,2.8886168,-2.3447046,10.996676,5.8651314,-0.08194258,10.227766,-3.6586943,-3.714386,1.9350308,10.854043,10.59555,6.929681,-5.224698,-0.58903044,-13.48997,-6.0604753,3.0209873,-5.630436,-4.0201287,-5.736951,-2.7173495,3.7743917,-2.2867398,5.4473457,-10.354732,-4.6150184,-4.102927,-9.694795,-6.004656,-6.1731086,-5.3056,9.875543,3.7039936,-7.468391,8.164987,-8.883865,5.5518556,2.71166,-0.40633014,1.2618823,10.32335,-2.972567,-3.286124,6.751705,-5.041561,-2.8893812,-5.902732,4.2371054,2.9903367,-2.5566745,0.12221708,4.5718045,3.3635147,-10.855526,0.55762196,-11.107803,5.9755316,4.469186,5.3724737,-0.71787727,-9.784779,8.011508,2.5347211,1.2938224,-1.3318343,-3.2963357,1.1942394,13.9483595,-2.325424,6.027944,0.26340595,6.806547,-5.909242,2.4136345,9.07159,2.9641528,-3.39036,4.052792,-1.6884497,7.3068314,0.26937392,4.032546,5.8933682,-2.988419,5.4775605,3.029178,-0.763458,-7.2168465,6.6709127,-3.4775863,3.5569937,-5.0092683,2.2049658,-2.966073,2.4211366,-3.6621065,6.9606476,-9.747174,3.6770778,1.8044335,-0.35337412,9.567018,0.07128915,0.57186866,2.634035,7.8744864,0.80716515,2.559034,3.2699142,1.6566337,-0.21745686,-0.42560822,-2.3384514,1.9513458,-2.258914,6.230156,-1.3259864,1.6554173,5.324424,-8.072778,-7.7635098,-0.31028038,4.262704,-0.0018288965,4.9720535,-4.580922,3.953839,0.30925938,1.5756158,-1.487216,-2.1793976,1.7306763,-2.6667962,-0.34806085,3.7469578,2.0316646,-6.952608,2.1776192,-0.9340359,-2.6467757,-0.034577973,5.7215223,5.1365185,-6.24276,-0.56017286,-0.1896338,2.1577778,2.8547254,0.5685816,-2.8240702,-1.0350187,4.396882,1.958553,1.9509714,3.2158628,-2.6545546,0.884056,-0.7484492,-0.14284535,-2.9912612,-4.1037455,-1.1897119,-2.5081484,-3.2237546,1.5539727,-3.3364935,-2.178099,-0.5778118,-1.4383248,1.2102857,2.6154442,-2.5569906,-1.0195465,-4.4742174,3.0079377,1.74463,2.3084311,1.8509927,0.4660335,1.5955197,-1.6334516,-1.4173418,-0.6118208,3.9683304,-3.4172335,-3.1247382,0.29794282,0.32288373,6.3683095,0.74922645,4.2865214,1.6168188,-1.2517778,2.8365598,-5.732711,0.19344534,0.021781234,-4.0800967,-0.83185095,5.4728847,-0.10167721,-0.46007732,-4.3080673,-7.830348,1.0692344,-1.3222688,-2.2204156,2.9439425
PMC6273331,-32.97768,14.948011,-23.238588,16.810108,6.6524453,1.001873,-2.4213624,12.629297,6.635389,25.885387,-8.238888,17.747913,29.950987,7.1244965,-1.1076778,-0.48186532,-12.30842,-1.5279375,-9.747776,-3.4121048,-14.102653,-18.89557,12.189595,-17.914473,-14.063446,0.7121244,-24.99549,7.875122,12.870255,-7.196098,-12.889355,-1.0555623,20.802746,19.573471,1.0717553,-21.274397,2.7037559,13.516815,-5.225881,17.309715,14.216673,11.438223,5.672389,-2.0126052,1.3675814,26.426376,8.891267,-10.020828,-4.8480043,-3.866829,5.5257707,-12.956086,13.827077,21.034773,15.9143715,10.300882,-16.97303,11.668862,-9.18495,19.484812,-1.0410918,7.5675077,-2.1891618,-14.262445,-1.3456879,10.773883,-2.716838,5.713504,0.20315142,6.3561745,11.366199,1.4360039,6.513104,-2.937033,-7.5520816,13.880834,-5.2452826,0.054838654,3.6972246,19.012667,7.1845064,0.5838463,1.2399817,10.334326,-3.5053442,-13.493642,2.6542344,-9.633778,-5.055382,5.0206046,-14.956707,-21.677864,0.88745004,4.7564807,2.0667708,3.5931995,0.9063165,11.524223,10.632229,20.58052,6.194644,-0.83476484,-2.5977223,-14.330058,-3.5834548,-0.16865516,3.1154323,-1.5380565,-3.0136104,-6.363443,-5.4239354,1.7125145,1.9520086,-5.534929,1.996727,7.1338997,-2.6926703,11.027002,-1.4462193,-3.6972263,-4.750571,-11.84764,-0.22555241,-6.216223,7.5467863,10.972457,-7.889525,9.020792,2.6166909,-1.144019,1.462266,5.919275,1.1546671,0.47111112,-8.092127,-3.6109555,1.8878697,1.8785828,3.4238937,2.0962799,-4.4950933,0.9343401,3.212545,2.2435515,7.789889,4.758381,-9.93296,1.342931,3.8639634,2.170898,-8.584359,3.5790083,-6.9996734,6.3274326,3.0394287,-0.51659447,7.7886233,1.2750953,4.4093313,-1.1419382,-6.362189,6.962566,-2.8457575,6.05423,0.124399684,-2.9221215,1.4208302,1.3899925,-0.12685317,-14.895343,3.8122373,5.152143,1.9536798,0.66370314,-2.547162,-2.3692741,-2.3905666,-2.2640035,2.3886719,-0.38929233,-3.8841705,-1.8056537,-1.7500868,-3.717049,-0.42004356,-3.8044512,-0.70898134,-3.3086061,-0.73688376,-5.0975842,2.1875198,4.9852376,9.644596,-8.562912,-3.0842648,11.425564,-5.612454,-1.2574943,3.826472,-6.072748,-6.3976974,4.5485997,0.19396245,-0.6670381,-3.3449612,-5.032885,-5.801885,-1.5866692,-1.3336112,11.350779,-5.0940895,7.4387617,-4.5730734,-1.3318964,0.9027402,-3.7625134,0.3989558,1.2270956,-2.6611304,0.5102406,2.7867703,4.452414,-0.7804009,-3.5472484,1.5852264,-3.357086,-1.4649822,-0.8212524,6.6476746,3.6684904,2.6774325,6.7761016,-4.223193,-3.0297992,1.1017542,-2.4536674,6.018032,0.64911294,-5.217175,-3.619059,-5.8466835,-0.3541295,2.5574565,-1.36045,6.589064,-7.647632,-4.363247,2.9442868,5.29056,8.870136,-4.573676,0.9077226,3.554063,4.0116816,6.5819736,4.186164
PMC7121334,-6.4154243,2.2596247,-4.3397317,-1.3707465,4.3095946,1.7884362,7.3316255,3.3066096,9.969119,3.1926446,5.37281,-4.944107,9.772223,12.883334,0.9017236,9.460621,-4.4922047,-12.184498,1.2994757,-4.832377,5.79457,0.72033477,8.53875,-8.738772,2.3534355,-5.7730474,-0.011151534,-0.18097286,13.792756,-15.040892,8.701586,1.4816072,1.6106273,0.9610662,-1.3156313,-0.62675995,3.5522637,1.4658101,-1.8766961,6.2814107,3.3013854,-7.043379,-1.3224124,-1.2081321,-2.8000708,-0.390873,-11.581705,2.1865222,7.2285614,8.07731,7.7012005,11.41813,-0.8287852,12.606718,-7.396041,1.300553,1.532018,0.89964145,-1.7042111,-2.4281442,0.6277536,-0.7062006,-6.5327077,-3.1081474,-2.6165106,-2.2373903,-2.4316766,4.982568,-8.999745,-3.2480445,-5.4500165,-3.5898094,-8.144978,-2.8969347,4.255271,2.9604537,5.901639,-9.102149,-3.2264194,6.6313114,1.1070238,-2.1467462,0.5001713,3.5207114,6.4518037,14.061469,-2.1037362,6.996221,-0.9976067,0.5204447,-3.4590445,-2.6151903,2.033928,-0.24449821,2.2677472,0.69406545,3.8862534,0.9353692,-1.5138896,4.563636,2.390386,5.6955476,-4.3380547,-5.181899,2.6841903,-0.3086844,-6.1977205,7.8134723,-0.5637356,5.3425617,2.0939517,1.7253224,5.791776,3.1499686,9.200301,8.626047,-0.56307966,6.7902317,-1.2229735,-1.1365622,1.9677291,2.895387,-5.086614,-4.8924813,1.1607429,-0.14786017,0.5071008,4.8320665,-4.30341,-2.8613691,2.2876496,-1.9742627,2.1365597,1.8086574,-2.3181584,2.0243618,-0.48043832,-0.51459795,3.4518826,-1.940386,-1.42889,-4.0728803,-4.4139433,-2.7680085,3.6322837,-0.092821546,-1.9651062,0.67929274,-2.1025796,1.5085473,3.3993948,-1.7134098,7.0046377,5.5824,-0.58691347,-1.5780065,-5.8208985,0.42781425,3.6668243,4.4470944,-1.084131,3.2196364,-3.461013,-2.5600953,3.8217492,1.0813599,3.3207128,-0.043484416,0.04856029,-0.81392246,0.238615,-3.769333,-3.8876863,1.0338259,-0.023237944,1.3566248,-1.8828374,2.4530308,-2.0832186,-5.122087,-0.21693341,0.35972443,1.7921324,1.7992127,-2.1362326,-3.5440369,-0.39792082,0.5376013,1.968895,1.6362357,0.353126,2.5288305,3.3463643,4.506602,-1.0119278,1.775164,-0.6992479,-1.5442401,2.9126873,-1.379796,3.8518622,1.0174117,-1.7127373,-0.61433035,1.2222244,-1.9870285,-1.7157358,-1.3479514,-1.3999599,-1.9823835,-2.010735,1.0168707,-0.6975391,1.7428205,1.1589718,-4.7503715,-1.2164403,5.5016174,0.89515805,-4.0807967,2.5759122,2.3040366,1.9725097,-3.7289076,-0.961635,-1.1878519,-2.547858,3.9583137,-1.6010015,2.1770678,-0.698235,2.6606174,1.0994084,-1.0049255,-2.331632,-0.6072379,0.99958706,2.3812008,-2.124541,0.23208934,-2.4518337,0.081348315,-3.4377596,-1.0064385,2.2476764,-2.612135,0.1635916,0.80383295,2.6495497,-1.0582604,0.051679432,-0.8583106,0.1990913,0.3082388,0.3146036,1.4604732
PMC4526804,4.416481,-2.344682,11.369858,-12.957375,-7.3100834,5.2617655,28.899248,1.2235178,-3.1125884,-2.24882,14.454933,-2.5310266,-9.324992,-6.9465733,-0.0031091003,6.2791276,-21.644802,-14.53568,14.883184,-11.131144,-13.403079,-0.78670377,12.814051,-17.734632,-7.1636934,-6.674014,0.8812363,8.337202,6.170775,-3.906777,5.3560376,7.5223184,5.1176662,-7.9966207,9.496819,0.12523934,5.3568945,1.4268363,-6.3854785,-10.839668,-3.952858,-0.14779009,7.9587445,-3.171681,-4.6496873,-8.1642685,-12.191966,1.1840358,3.0171947,1.1692907,9.242436,19.04365,-0.7529949,7.0817986,14.893055,5.286427,6.8934703,1.7714851,-3.5448232,-6.446804,-4.758196,-7.417551,-15.299599,-2.5359662,1.0461391,5.486497,-1.194911,14.677856,-11.890035,4.4792914,8.659839,2.1275568,-17.359432,-7.242202,1.9073278,2.4700687,4.860551,-8.957572,1.1853803,7.500268,5.621344,-1.6510673,0.38510382,2.050435,5.241469,9.4972925,6.1274357,-1.0766917,0.18175092,1.9123278,6.678385,-0.63771087,-0.35008284,-2.066355,5.9030128,-0.5529217,5.7238045,11.046097,-2.324394,5.397256,1.8106555,6.98555,-5.9905925,-9.553465,1.64753,7.575629,-7.884563,2.360883,-5.7476444,9.960938,-0.7523149,7.277508,3.536393,6.0417356,7.328276,1.4488475,-4.14779,0.9410933,1.2639123,-2.8618572,-4.035024,-2.4269207,-11.398058,-4.6051083,-6.7116656,3.3188076,-4.180697,0.865332,3.723849,0.5811941,0.6103634,1.9449183,1.7056024,-1.4547281,1.8144202,6.0595193,-7.816558,2.2730527,1.8796824,-2.1483378,-4.2101364,-2.808144,-5.6080165,7.1916575,5.753801,-2.8997593,-5.7540946,6.1475916,-2.67612,2.478152,4.300398,3.309195,2.059276,2.2796588,1.5406834,5.5693154,-4.9551277,-1.0058205,-10.07367,-2.2373729,0.60962397,7.9449935,1.7072744,-2.460236,0.8867113,6.378457,4.32899,0.039274696,-4.583776,-2.6705775,2.746563,6.1165304,-3.0246205,2.3602848,3.614549,-3.4687343,5.0795994,1.7816118,-4.6819525,4.3170686,-3.446409,0.6443351,0.39177966,0.74942994,2.2270343,-3.7036111,-1.3326758,2.2294898,4.326825,1.6563638,2.7601292,-2.6842322,3.2620747,3.327074,-0.5617014,-0.93490016,1.4167997,-2.0644484,3.5761719,0.06618129,6.308995,4.6720495,-4.933889,-1.607217,0.053603224,-3.9103525,-1.8876888,6.5320935,4.6915016,0.78726053,-4.53693,4.9483347,0.6920783,4.879632,1.2715721,-3.1263142,0.23074484,3.6032639,0.7261813,1.0754533,0.81717926,1.6268643,4.358269,-1.3648149,3.719139,3.5075648,-3.2508488,2.0986986,-1.4144626,-0.55469275,-4.7674446,4.560021,3.4239843,0.12943667,-3.7389803,0.95964724,-3.1295109,1.6784259,-5.857512,1.4386548,2.4180126,-5.1644363,-3.9781368,0.12543738,5.225003,-2.937905,-3.1840565,2.2096088,7.379901,-0.5851706,-1.4081457,-0.88142884,2.8739831,-1.00967,-1.6602658,1.4914418
PMC3015881,-18.002998,14.773485,-37.62347,-15.187682,0.14197233,7.913151,-15.575978,14.254066,12.593305,21.353342,-15.197931,13.114058,-5.6588407,1.7058455,13.398473,-3.554858,-8.709744,5.1518416,-5.3300667,9.565435,9.157267,12.549645,11.708146,-6.9286485,1.649127,-28.693064,4.427309,-2.4869437,7.515358,-5.2005324,17.37352,-1.5988685,4.392755,9.803016,-8.372067,-7.3478756,13.548521,-9.593658,13.060345,-5.624534,4.5110273,-5.3437433,5.3439884,-2.4584663,-21.35622,-0.35219163,2.7186928,-4.4037814,3.7985916,-5.723199,6.7861576,-1.1842326,9.899437,3.9410253,-4.492678,0.24965405,-12.788425,5.844797,-1.4231637,-2.727906,-10.7337675,-6.3687634,15.287181,-5.556088,-2.9384983,5.4805565,-6.6225133,-1.4713882,4.019072,-0.95438653,-0.064750105,9.151481,-4.0900655,-6.086135,-7.5347543,-1.7218496,-4.4735417,6.1659217,-10.993905,-9.759012,14.299022,-15.107547,2.2945485,21.743727,6.472042,11.123094,-9.949766,0.41179723,9.416817,-10.092958,2.7410722,-2.338136,1.8130543,0.86126876,-0.3425557,-4.288975,-8.486117,10.11763,-0.657904,6.3754487,-0.036086347,-11.6283045,9.988275,-4.5095954,-8.1902485,5.8533287,17.707521,-0.7063849,-9.313066,-14.872353,-3.9477158,-7.1613216,3.0435402,3.2814329,7.401994,-4.2513056,3.4291213,4.359723,-2.7182336,-18.951168,-6.218874,2.3911984,-5.9007425,2.924141,1.1237824,-4.967603,6.9724145,6.582248,-2.315878,-5.565099,6.2221675,-5.665336,9.197756,0.47982973,-9.417863,-16.366741,-1.7630677,17.520721,0.38796803,2.4078608,-7.385765,1.7064235,12.625556,-10.784963,13.530697,-0.96188414,9.054072,-2.6947286,2.8552487,-2.4662492,-1.6183016,-6.2816644,3.394645,2.3343709,3.4014766,-12.381699,-2.2118983,-3.0638514,-3.8717587,-9.736907,9.013407,-0.68213356,2.1305752,-5.355568,7.776244,4.590776,-2.393167,-4.2524595,0.041833606,3.8819106,5.0057383,-2.87186,-1.3085878,0.32330844,-3.678769,-3.610209,10.972489,-7.831095,-8.860406,-0.4409794,-3.737261,-4.9919963,-4.191308,8.55922,13.0223255,7.293463,4.0975347,-6.8353043,-2.109155,5.9705086,0.88896286,0.2897703,7.537229,-6.3067775,-1.4158341,2.5520945,3.8680623,-6.4075413,-5.2361703,-4.1051426,3.984713,8.639562,-4.5222325,5.0872793,-12.455484,-2.51337,2.7756176,-2.3547242,-3.2905679,-3.5096562,-10.293569,0.700546,3.2096481,-6.100793,-1.025815,7.4395585,6.20766,5.158023,15.912064,-8.184688,-4.013824,-0.23848239,4.703638,6.4139886,-0.46157464,-4.2048707,-3.8549788,-2.2843776,-1.8452771,-3.6592007,5.8615994,8.299634,-1.0905324,-2.0890088,2.940557,-3.195982,-3.9036798,0.25818783,-0.048964527,-3.1143591,-2.933176,6.0471773,-5.919118,-4.3753877,13.468931,0.14742413,0.6693535,-0.14273883,-3.4541256,-0.42288426,-2.1939433,0.0045668925,-3.516522,-3.192408,1.1925976,1.5261147
PMC5218505,8.415251,-6.0284486,-38.59978,-14.208958,13.100144,3.4604208,0.4459994,-4.5106206,1.132774,14.608675,-0.5564705,6.5049577,-1.1859072,-5.0726523,-3.4776213,1.3031088,4.0617695,1.7358764,3.4038477,-7.1992145,4.9059405,2.495112,6.2974105,6.85282,-4.6817536,-0.2816668,4.3217716,-3.9481616,8.7458315,-18.637121,5.0097904,-2.0892723,6.792986,-4.1371083,6.5241714,-8.769631,2.3158264,-12.946697,2.7901306,7.4567037,9.926429,-0.45945984,-9.184217,-4.2291484,-6.6909833,4.5501533,-5.9220614,-0.593969,9.5755625,10.790615,5.2857523,9.663603,-16.704807,9.686016,-4.549555,2.7450025,4.030916,-2.4935062,5.377113,9.429107,-6.756639,-5.812865,-6.3665237,-3.449656,-3.809166,2.042122,-7.354109,-8.702867,-10.194478,-5.461593,3.9005334,-2.0674899,-8.478418,-20.9402,5.799808,7.836635,3.6667223,-3.253319,-4.121954,16.953995,7.9153824,0.08156362,0.34025964,-7.3986907,-4.1766515,9.470901,-5.5217834,-5.6347084,3.7132342,-7.783211,1.7203693,1.8168335,-4.198815,3.1580365,1.7747344,-2.9342363,5.07293,1.2973071,-4.478416,-0.14635052,1.7271199,7.0450816,3.7469304,5.114503,1.2777013,-1.4785196,0.7026162,-5.495121,-4.2165446,-12.450864,-3.9199376,3.5544708,-2.8139272,1.8501697,8.484296,11.164436,-2.952495,-1.1219643,1.581866,-7.0632033,2.4345715,2.759807,-4.419103,-0.2324219,0.07651384,-2.5903637,-1.5931393,9.897015,-5.150174,-1.0954428,1.4555285,-2.6665745,-5.1123495,1.633512,0.43198362,1.5324457,6.70184,4.2191873,-2.48295,-2.509783,-0.22832686,2.4457905,0.8327364,-3.9823616,4.944702,0.83470285,-0.06529063,-2.3884075,0.1558734,6.2857776,4.1925797,4.388257,-5.170719,5.422749,-5.6058083,1.6366261,-0.69664216,-1.9992428,0.83558744,-3.1560771,-1.2986377,-0.58796465,1.7308354,3.371501,3.2381318,-2.4922373,-0.72611105,-3.7121577,2.8794894,-2.410402,0.7401876,-3.503271,1.6813835,-3.2225215,1.6977227,-2.8368337,-2.8423257,-3.8287346,-2.4033217,-1.7341553,-1.7272496,-1.6157231,-0.8373261,2.495256,-4.328682,4.2038546,-4.684405,0.79252166,3.0900795,11.16402,1.9022939,3.406074,1.1405991,4.25567,-1.6259723,4.9137373,0.12342075,0.48497978,2.5215745,-2.2932994,1.9014928,2.1362321,-2.2529483,-6.4646444,3.563255,-0.7398452,2.6975985,1.5989311,-1.5265294,0.53940856,-1.8658396,-0.7905518,-1.4460065,-0.087507136,-6.89785,1.0614235,-1.5118552,0.6963805,3.40283,0.27247804,-4.4837546,2.7318125,0.021546228,-4.8255005,-1.4895496,1.4207144,-0.6871828,1.7781833,-1.4259229,1.3365204,2.364415,2.5559556,-1.5312433,-3.18859,1.2097969,0.39319542,-1.5762856,-0.53107435,1.7213413,-1.2776554,-3.9343212,3.1544635,-2.9338136,1.404301,0.943256,-3.561218,-2.7931604,-1.1502386,-1.987967,-0.76712596,-0.40180567,0.39836538,3.9006476,-0.28223965,0.9272794,1.9210151
PMC2873921,-14.722875,4.037899,-6.7986226,2.9672253,24.14107,3.002247,-3.0650926,-12.337718,-2.6933877,25.930286,-18.665083,-13.928891,0.25616735,23.118591,10.676707,17.880716,-10.270065,11.865433,0.07059822,11.990522,-9.947415,-2.5617647,10.501923,-17.00628,8.201298,-0.42168173,-2.4081943,-2.140338,10.5573435,-9.194948,12.010388,4.0207825,9.254066,4.7211905,10.716201,-0.7202074,-12.836065,7.0410094,-1.3778917,4.6256495,-7.763739,-8.453239,-2.0801837,-0.6269058,7.228013,10.404555,4.490314,7.969191,-6.4054747,-6.0369697,13.429089,13.712433,-5.9560633,5.5013695,2.8375134,0.5567798,-0.9272704,0.018660042,-4.2195883,7.421863,-4.370821,-1.8611014,-4.7070937,-10.351538,-2.6802642,-4.3539133,-10.268914,-2.639535,-4.987659,-1.5781368,-4.796194,6.7180123,-14.943824,-12.592212,11.159005,-8.490382,-0.3901833,-4.0043244,-0.4430709,18.918821,-2.387723,-6.0014067,1.6636271,-7.40366,6.9460464,10.891283,-3.6872365,4.1409116,-0.19131476,5.5441594,2.634891,-2.9880905,-6.24972,-0.7347249,5.35829,-1.2839437,2.9343534,0.21163791,-0.93572134,-0.5653906,-6.8259325,-4.0131273,-2.4827583,-11.574578,-5.0179424,2.8285809,-3.8228471,-3.2817974,-4.6903696,-1.4406575,8.740141,-4.7489014,4.3697186,6.7377124,1.7332456,2.5237215,-15.87691,4.9323254,-4.538687,2.6872818,2.2895265,3.7790284,-3.4516904,-1.7183475,-2.746588,6.5186615,2.91563,4.9057665,-1.1523322,2.4456608,-1.135632,0.18690959,-1.2430065,-0.20150778,0.85866654,-4.4780397,2.6962686,0.6502169,6.4212875,2.7797053,2.937079,0.43240145,-2.0716205,10.147577,-6.531972,-4.622502,-0.97756845,-4.9061794,-0.088389695,1.567373,-0.29156294,1.1718645,2.9793956,11.837683,1.6307223,7.3826737,-4.1653647,2.1535108,0.13189118,-0.89448875,3.8362048,9.85079,-3.2469673,3.9173343,-2.0386178,4.705937,7.59956,-2.938405,-1.072649,0.4075561,0.87657183,2.6929119,1.4239887,0.2795111,-4.689738,5.1378527,6.3199487,-0.71395874,-3.889774,0.7390228,-3.0937948,-3.589245,0.6576444,-3.2621183,-3.7094367,0.54845405,-3.4691856,0.42919296,5.4185157,-0.2971921,-0.41921446,-5.178062,4.100597,4.196321,-5.470667,4.8039656,-2.4548686,-8.382671,1.4492044,2.214262,3.949513,-2.2864916,0.12834355,-2.2855968,-5.315599,-5.3419724,-5.2578626,-0.30981773,2.4435446,0.9430377,-3.5216196,-0.016136039,-2.9583929,-2.488307,-0.27362436,-1.343186,3.9650238,2.685823,0.41486448,1.7356845,0.710819,6.4399877,-0.81785166,-2.8554783,0.007790046,0.13057216,2.7337258,8.070997,-3.9705076,2.4050586,-4.830026,-2.3824923,3.9303246,-4.694102,9.530734,-2.66199,-2.2050447,-2.5392494,3.1919856,-2.9241083,-5.912062,-5.1452303,-3.3814015,-10.509777,-0.09701415,-4.8034897,1.047309,-1.1041217,1.8596883,-3.2622368,-1.8035972,-1.9945754,2.125748,0.19761412,-0.95301265,1.7685021
PMC3463541,6.9808116,-17.289335,-13.65108,-6.5780597,20.17514,23.730864,-12.513497,10.411254,14.057284,18.306856,5.519156,4.7465796,16.50824,-1.8506153,4.6327267,8.145514,-4.03598,-4.4993553,0.04553364,2.8651273,5.071153,7.531361,-3.2583563,-17.79875,-7.0930357,-8.3899555,-11.633293,12.93388,18.790356,-9.795741,12.47948,4.4465165,0.981705,-7.146004,4.2014723,-0.2931514,1.0256985,3.8003137,3.919975,-6.64123,-1.1829296,-16.36376,-10.008218,-4.0819855,3.0142,-3.8281941,3.217543,-8.271539,6.405874,-5.4942346,8.692376,3.9548678,1.1399196,16.563448,-7.70594,-3.1204264,7.730054,7.535311,-7.9517117,11.757129,-0.8059453,4.762883,-7.183699,0.47283325,6.280545,-8.103693,-2.5876455,-7.380561,-10.138877,-11.442601,2.6348135,-6.2398963,-10.476516,4.1828346,-1.4570808,-4.5436263,-5.1751122,-5.440899,-7.070148,14.386198,-5.688681,0.8081473,7.681581,-7.0593815,6.764988,11.472522,0.046092633,11.262175,9.890218,3.0985923,-0.9008951,-1.5653117,0.27244592,4.7975054,5.5076585,-2.6938002,2.2157967,-9.401995,-1.9795642,1.8724842,4.754856,2.8594115,3.643728,-8.329332,-0.123889685,9.014666,-2.4238532,7.2693443,-15.058515,2.7404628,-3.360324,0.790194,-3.5122263,-1.256372,-0.12437461,10.852018,-1.5892767,9.307156,-6.513553,5.92165,1.8606737,0.8452268,6.9491205,-4.5557957,-3.9625323,9.770476,3.7797513,1.0207092,5.0366654,6.7587495,0.8056453,-2.4475436,3.7048812,9.275348,-10.065036,-4.337655,6.6899524,-0.47454068,-1.3155432,1.2485446,3.937443,-6.940327,2.128316,0.34630573,2.1421156,-8.756454,4.692524,3.3263805,-3.2206202,-0.8738064,-1.9742155,-3.8292458,4.646531,5.841391,-0.3049908,-2.618363,3.1251814,0.7335484,0.9532854,-2.2771401,-2.4978325,-0.19521628,-8.022726,-1.9847788,4.0043902,1.4993834,3.7254777,-11.891749,-4.03787,2.4635172,1.746691,-3.1518936,3.600435,2.0794837,1.6322199,-0.72020596,-0.9671628,-2.133875,1.2366487,3.4275475,-0.37369764,0.8414473,-0.102770746,5.134972,-5.7976336,-2.5301871,-1.3526992,-2.784231,-0.1716779,6.241444,6.5464892,-6.1275735,-2.6193702,3.8703997,-1.6992676,4.6795535,-3.7353206,-3.9550037,2.4096289,1.2814764,7.2989335,-0.4489597,5.122018,-0.28106,5.1753993,-1.3278875,2.8240397,-2.612459,4.0171723,-1.713763,-3.9406455,-2.7295027,1.5984682,-6.910732,-2.893175,-4.67802,-1.2301288,2.5912945,-2.6368906,-3.583158,1.5731882,0.09565979,1.9423982,2.1717243,1.4213693,4.397009,1.4822373,5.0626607,-0.4376558,-0.4022554,3.5534196,-1.1798534,-3.052553,1.0054138,0.2032361,-0.30407968,5.3080997,-1.3542337,1.8274983,3.0557985,-3.6282256,3.4215991,-0.8346095,2.4591434,1.4450152,-3.4754255,-3.043704,3.9305995,-1.6626507,-3.2969005,-5.333064,-3.2991216,8.566703,-0.3642944,0.97305286,0.6936306
PMC4031199,-14.517724,-16.35468,-1.6409193,-7.151372,13.572696,4.301035,-10.31985,7.6192904,-0.89845157,15.237672,2.8403556,10.427545,-0.103848636,2.8539584,-3.44597,4.0445843,-0.22107041,-22.128405,-4.65476,1.8409313,-1.981801,-7.785689,0.8157984,-7.220093,-4.658189,-12.493846,0.27036583,-10.023994,5.788591,-3.8970227,-5.5057883,1.2800831,12.874352,-1.7308378,-12.877445,-8.157297,-18.873417,0.36579517,13.437272,10.1818905,-6.522398,-17.291204,0.12381505,-7.9039254,0.69699657,7.517154,-1.8551301,1.4386322,-0.55491006,-13.380326,9.549789,6.3425846,-0.46950185,12.707045,2.2381568,-0.86940545,3.0422165,4.089521,5.294422,2.76235,-0.22423537,-2.7669287,-17.456696,-3.9513614,8.258665,0.60073155,-8.407472,-1.3495241,-12.136188,7.889824,-0.8710193,-8.749575,-0.8452289,-9.113537,0.42730922,-2.7828076,-6.269893,-1.7488232,-1.1672109,12.6172285,0.47567526,-10.274398,8.820551,-15.441424,5.2497993,9.74444,-2.3145428,14.55859,1.297866,4.491601,6.5256686,-3.19575,-5.204002,-1.7977967,-0.9401696,2.7559423,10.301481,-17.352194,-0.32400972,-0.15568742,4.2139235,-0.3905872,-6.501331,-11.224308,2.1510105,7.532505,1.9995698,-0.19492713,-18.451193,6.095239,-3.9657936,-1.5417438,1.48883,-6.7953906,-2.0525742,10.656171,0.5059475,11.909423,-2.2571502,3.2833571,-1.6504487,0.23137791,2.2258563,0.09204022,3.7943993,9.176276,4.03843,-9.514896,4.3987546,7.6897016,-0.5736668,-1.4590027,4.367629,4.054929,-2.6335838,-2.8176415,2.0104086,9.647607,1.8046356,2.9447536,5.89538,-4.8567324,-2.6840613,0.007978015,1.8858715,-1.8241712,-3.919221,1.0489949,-2.3966005,2.2716837,0.3668287,-10.832393,3.7384615,0.95254064,1.7184381,-2.1894746,-4.739342,-2.131387,-2.470879,1.9853839,-4.630466,7.3561482,-3.07421,-0.43219575,7.9088078,3.4867208,0.63145906,-10.207974,-2.736725,5.352341,-1.144557,0.9522024,2.4678397,-2.8543227,-0.10545716,2.317622,1.375567,-4.6898108,-0.82705957,-1.3672261,-5.0822577,3.0504684,4.9012485,3.4777222,-6.047216,-3.5991297,2.6108384,-1.6580651,-0.00249062,6.792734,8.117556,-3.3335178,-5.152493,0.31057033,-6.3238935,5.265779,1.8780408,-6.1031046,2.668546,6.004531,4.413857,-1.3406525,3.7583323,-4.05806,0.5374509,-0.85304993,0.5367918,-2.4071002,4.1037054,-4.348753,-3.9789882,-4.191394,4.3177676,-0.32368377,-4.1160393,-4.9157476,-7.3582845,4.327041,-2.0610647,0.78510904,2.4341817,0.28631794,1.4192592,2.9036674,1.4511626,3.9586306,1.8869342,9.548871,3.797178,4.8221674,3.5582774,0.3862588,-1.3415605,-1.3361367,1.6175531,1.4413868,6.4205513,1.3760681,-0.6735589,1.7233753,-2.135942,-1.5225211,-2.341921,4.799211,0.35731632,-1.0714363,1.5480236,-0.28996843,-1.1093758,-0.48780748,-2.7015646,-3.4731297,5.9233575,-5.120561,-0.053712584,2.0402052
PMC5228579,-18.377148,0.5135273,-16.644243,-4.8933706,1.1420714,3.8400483,10.783301,-3.7446868,2.9328341,8.299819,-0.43592152,5.6608405,13.908244,5.83067,2.2337787,-9.753494,-11.005651,3.7943857,-2.3192322,-3.0720038,-9.507702,8.095577,-6.3966255,-7.9500976,-3.7231753,-0.048247408,0.39984632,8.185251,3.8674767,-12.368485,10.015742,1.9428374,-10.5038805,8.29438,-0.7973117,-8.46067,7.1129627,0.38237318,-14.742908,19.621485,6.2717977,-11.9706745,-2.4587798,-2.3443263,14.375514,8.940236,-4.696652,3.8086765,2.310432,4.8548894,1.4553512,7.997035,0.6588755,13.318953,-4.746335,2.8273425,7.4004908,6.2112727,9.3689575,0.43092412,7.312821,1.2538855,-5.2110114,-5.41953,9.626176,7.397279,1.1989819,4.497634,-9.998611,-12.4257555,-4.880485,-3.1122022,-4.533767,-7.545997,-2.0162635,-6.94127,-0.44872427,-19.918549,-6.7736306,4.1682353,5.9584556,-7.8692675,5.4226766,-3.0844257,-0.28019437,6.1837015,-1.6985067,-0.21774124,7.2084107,0.20934384,-1.0131729,0.61526865,-6.7341228,6.898184,-3.4331362,2.835679,-2.4215307,1.8254746,-4.093409,-4.886973,-2.9672287,7.4507885,-3.945137,-2.281883,5.329383,3.7899141,2.0512478,3.5993407,-7.1547546,5.1028576,-3.8859863,-3.1666656,-7.190125,1.1497152,-0.065864794,13.296788,-6.366503,4.258154,2.492869,-1.5268455,2.8574364,9.595601,-1.1800666,8.878313,2.4044466,9.090112,-2.5457973,7.47891,-2.270406,2.689555,5.3265824,-3.0924704,2.267077,-2.336388,-0.6725304,-0.8553836,3.0166209,-1.6911366,-3.2614977,-3.723347,9.079257,4.159454,1.4271171,-0.7298105,5.305581,-1.5640011,2.4554884,3.706455,1.2094387,2.2775776,5.1398005,-0.5475569,-0.35873058,6.6951776,-0.43023163,0.068441845,-5.618991,2.4415667,3.340889,-2.5415854,-3.1878376,7.936638,-4.939602,0.5257885,2.7070484,1.5485721,0.57506996,3.665235,-0.7095655,1.2783027,1.1635323,-1.8784478,1.5671656,-2.9247537,0.39570615,-1.7962025,-2.8692873,-2.9029472,-3.7308877,2.7321014,3.4138572,1.6333181,-6.867202,0.038329933,-0.61194783,-3.0170567,1.763427,2.564933,-1.0906749,-0.9532672,2.5289338,-5.747209,0.45553765,2.7906747,-0.24514021,-1.7965734,1.9386567,-1.0720323,2.8431997,4.717201,2.2701383,1.641384,2.0210943,-2.3034594,1.4238999,0.113854595,-2.298439,-0.7308578,-1.9582102,-1.4143614,-3.4524143,-4.2466483,0.17722757,-3.8323262,-0.47332892,0.13580215,1.7290645,5.1799054,-0.80026305,-5.024939,-1.79949,-0.89485645,0.31018525,-8.412977,-2.7268775,-2.328053,3.584685,1.6646073,-1.9585669,0.47118825,-0.043628473,4.632219,4.328771,-3.625278,1.6915259,1.0052435,3.8617494,1.2370502,0.008161179,1.4858079,-1.6566513,5.288937,-2.7524061,6.6606054,-0.38138977,-0.5085856,1.8173816,-0.35881707,1.2548755,2.6006804,-0.16621214,0.7700736,0.5045548,-0.5688898,1.3090209,2.094464
PMC10286259,-9.764935,6.787619,-2.2654414,4.628475,3.708729,12.745275,-4.746535,-3.2245076,6.286804,-1.969867,4.840174,10.906972,13.5831785,3.7773638,-1.9483825,9.362731,-9.464558,-1.417782,-3.603308,9.675394,0.38972822,1.4129266,18.704498,4.067963,2.9001772,-3.9518032,-6.7857304,6.6855116,4.492276,7.423946,10.227769,2.9614947,-20.046785,1.9669434,3.2199223,-11.950693,10.445996,0.5144935,-0.053422794,8.11827,18.381205,1.0471457,5.4394374,3.1721869,-2.5243857,9.603284,3.5082374,-6.0134683,1.2303488,-1.2307289,7.055346,-2.2668467,-1.2448541,18.321224,-2.2384725,7.7751126,8.217048,-1.3380626,5.310538,14.400477,2.118412,-4.0348005,-9.828537,-7.622218,2.8186731,-5.4819336,6.881519,4.312966,-9.147187,7.3575144,3.555412,-6.8508687,-7.982306,13.584429,-5.920386,-0.63175076,0.48390004,-12.035533,3.8812146,3.1903405,1.9459119,-1.9687608,20.789904,-6.7639523,8.740286,5.3975077,-10.879458,9.74419,-0.93244934,0.6605705,-2.9328263,-13.602263,-1.8474147,-2.5985742,1.1013399,-5.91595,1.0927488,-3.2773154,2.4447622,5.7596965,-0.13849531,1.3600662,4.281459,-2.094468,4.6435833,-0.54532385,-3.8112376,2.2093155,-9.239164,-6.8237224,-3.2948415,4.19872,-2.6358476,3.1796901,-5.701832,6.1856966,2.6214583,7.1377854,-1.60342,-2.8547294,-1.6292402,3.639026,-3.6381261,5.939702,-3.6564388,-2.1586611,2.4647372,7.9928246,0.22783095,0.3280171,-1.7498319,-5.337672,-0.2175605,3.0250854,-1.3402597,-0.02788683,-0.65248924,1.6943651,-1.9919345,0.60708934,-2.1619878,1.0866897,-3.4579835,-5.3997383,-0.42727256,-6.234437,-1.3690255,9.284147,0.660943,8.031907,0.69589466,7.144913,-7.2171984,12.69157,-2.829893,5.9230103,-3.8514354,-2.8561952,1.1382279,2.4425223,-0.7719335,0.24897203,10.625739,-2.5177805,1.0614951,-2.4016614,3.7356415,-4.962202,-1.302162,-3.2524734,7.711833,-0.3327249,1.0712725,4.0471163,3.4695442,6.9869266,2.7618632,-2.1812747,-3.1502016,-1.7859294,-3.513975,-1.041018,-2.502701,1.4835925,-3.956526,-4.9850216,-2.5737934,2.5326145,0.99050033,3.430524,-1.324436,5.0542235,-2.6825857,2.6630864,-2.5641015,-3.1249287,-0.81897295,-0.2670861,0.7529102,-1.6323005,1.2421954,3.9698513,-3.0849988,1.874765,1.4742701,-4.9964128,2.0874698,-5.832604,-4.3824697,-6.8283544,-2.704242,-3.784241,-3.4324937,-1.3605454,-8.457839,2.5311673,-2.4064906,10.387234,4.1169953,0.4962541,-0.9381531,5.8264146,2.515041,-3.8959532,2.5171423,-4.2881055,2.861466,3.9884536,-3.5978842,5.117979,-3.8610337,-1.1096975,-1.5081545,0.81849104,4.125648,2.6702318,-1.3257581,2.1377046,0.72171134,2.310545,-2.28341,6.1974196,0.33521655,1.7622344,-3.1041627,-2.7597303,0.18937796,2.4186175,-0.9307132,-1.0849104,0.19653623,-1.6886135,1.387658,-0.27333024,1.0260978,-1.058796
PMC7347657,-10.082849,-5.4706984,-19.175615,0.21206345,1.9974455,12.285572,6.921274,10.941044,16.91598,4.492694,-5.742945,14.862139,11.117699,13.979154,-4.957252,29.323092,-2.4876335,5.9793553,-18.035906,3.874737,-14.36381,-0.14022343,11.474703,-8.917578,-18.699907,-10.102542,-6.5155196,4.1049223,17.429132,-4.8216467,-1.3911141,-12.758894,-1.8915064,1.982221,19.007113,-5.518743,-0.59259,12.925019,-4.78592,3.3416688,2.6569853,-2.214015,1.9805396,-4.3271966,6.6077003,16.169985,-20.882616,-9.74923,1.9635506,-3.4352522,12.22913,-4.225415,11.288614,23.683498,4.377865,-3.0286825,-2.017999,10.793793,12.608123,6.396419,-6.326563,3.124868,-0.8758706,0.13501559,3.1287525,1.904563,6.332453,3.333624,4.895812,14.421557,8.50087,7.4433007,-17.675074,5.122996,-2.571714,-0.8072404,-4.964211,1.8543746,5.5234413,12.681181,9.895136,-2.8041654,-0.664335,-1.2911667,-4.42245,4.9372897,-4.295831,1.8600785,-2.4288507,2.2774105,-5.6959047,-4.492129,-0.98362696,5.8393226,-6.4842963,-0.055577915,6.9214993,-1.3465395,8.330508,10.439179,4.9112263,-6.810648,-7.1546016,-1.2109195,4.9486256,0.3925683,0.31121853,-6.888346,-6.2715907,6.5103173,-4.6707053,-7.0094047,5.6056266,-4.795642,5.219435,11.561381,-2.7245488,2.3051805,0.37352583,6.4926534,-5.3101363,-2.8315356,-1.6621279,-2.2552717,-0.7427991,12.553615,3.4083338,4.407646,-0.5695328,-2.3139753,4.152237,4.024435,-2.2183824,7.8272247,0.9585604,-4.562927,6.647603,-3.5493119,-1.3591303,-3.485447,-4.042365,-3.6635427,4.4875474,-7.2435393,2.903713,-3.209038,-1.373949,7.7903223,7.8660088,5.1602244,-5.84377,0.97735006,1.1675694,7.239004,-3.7121403,-1.6353475,-1.1095047,2.374482,-5.2234178,-3.60892,-3.4106576,1.223798,-2.1735883,5.899077,2.7093873,2.6182978,-0.8192152,-4.8451858,-8.197331,-8.436852,0.18696885,3.1488364,3.0843706,-5.3248262,-0.32123902,-5.601333,-1.149757,-4.4488873,4.00134,-2.0428016,-6.1764913,-0.6210771,2.4184134,1.6967108,-7.5583487,-1.7706414,-3.2993958,-3.0179725,1.8391198,0.36738613,3.034102,3.163863,5.486347,-3.3663127,0.4736672,-0.62372005,-6.6233,-1.0496042,-4.2837396,-2.7251575,0.9826003,8.351716,-1.1205591,4.3153415,-3.7035797,1.2169881,-2.5583167,1.3184214,-4.8381686,1.4757808,-5.0374713,-2.7090747,0.9954788,-1.2829536,-1.3264213,-1.3355565,1.7625111,1.4634615,-3.702335,-1.12142,0.01989499,1.4258728,-3.189807,-0.51862967,-0.06595013,-1.3411227,-0.9010732,-1.5740554,5.771387,-1.941675,-3.5928044,2.3506858,2.1605792,-5.3753433,-2.8712492,-3.8060513,5.2325773,-2.7041705,1.8078843,1.4044046,-5.7384367,1.1387151,1.4695947,3.4790366,4.9514694,-3.9639025,1.5690054,0.4161177,0.4788542,5.5307684,-2.858836,-2.4033427,1.0452626,1.4964682,2.6731303,1.8254087
PMC6994313,-2.2771363,8.794546,-21.41087,-4.8899584,5.1053486,8.126141,-3.675117,-1.3361663,6.9707546,5.647374,-13.62745,-2.023823,12.213882,1.6960447,-0.8959873,7.158994,16.835358,9.350948,-0.23497134,-5.574296,-5.177104,-0.8356213,1.6451093,-8.881173,-17.46763,-4.483236,-2.5447502,3.0171573,8.974999,-0.99914414,-13.112566,2.175635,-14.382227,5.567832,3.0906901,-1.6781663,-1.3330694,-0.9365834,-4.33846,-2.6082544,-0.22534999,-6.8576818,2.9469066,1.3196278,-5.1275687,15.504175,-5.1554284,9.886524,-1.5102187,2.8966417,9.092054,3.8352818,9.503029,14.323201,-0.12895185,4.0670753,-0.9906067,-0.8770164,-8.473116,16.110075,1.1108174,-9.244167,-5.4201074,-6.411526,0.87934506,-0.7129134,2.1794827,4.948859,-9.517766,0.6429562,-0.75905704,4.9958596,-9.306225,-3.9987483,-4.8997326,1.5491109,-2.4201496,-7.087382,1.676545,13.022135,2.2045398,2.705566,-3.2897694,9.761268,-1.3333144,-1.4876913,-6.697298,-1.8379756,-4.673997,4.7427373,7.175286,-10.321183,-8.814289,4.839707,1.452266,-4.7489405,-1.5468357,9.534222,6.4050546,2.9219754,2.6996613,1.1264399,1.8888589,-5.5153723,0.17461146,-7.9781637,-3.7809587,-1.9691086,-8.409053,1.0895473,8.909128,7.2699637,1.1330906,-0.37418067,4.2577653,7.4082837,2.9954197,-2.0785291,-1.9125302,5.111196,-1.2606575,-5.832599,-5.67908,-6.201701,-0.3688988,1.179947,-0.1277646,9.717867,5.706774,-0.8012921,2.130217,0.49453893,0.88032717,-1.7817191,1.615369,-7.287779,1.092161,-2.7126315,1.1793108,1.282184,-3.265867,-0.11897481,0.48415247,2.277102,2.0972013,-0.7748188,-3.6292472,3.9677305,-0.2548607,1.0077522,0.17811261,-4.046017,0.95872474,5.223284,-0.82595783,2.4854405,-1.2736987,-0.93066746,-5.5069966,1.4868706,-0.25829494,1.9460387,-0.69563293,4.3538866,-3.1081393,1.1284635,0.71900696,-2.844718,-0.62366265,-5.876155,4.38783,1.9336164,2.8579814,-4.6054816,-2.1623032,-1.0700539,0.50974774,-2.9540212,-0.25937092,-2.4723945,-5.533726,4.822768,1.8680943,0.9117969,0.072536476,0.012334191,-1.1579719,-2.243505,-1.5036683,0.17708328,1.1392605,-1.1436813,0.98204875,-0.9095538,-1.4829398,2.2115874,-3.120014,3.8748145,2.8595135,-1.7733274,3.4653184,1.0152037,-1.3607742,-2.1791768,-0.9059073,0.59705186,-3.1537426,1.805572,1.5340271,3.0554821,-4.8390145,1.8306584,-1.3198718,1.0627888,-1.5500376,-3.6534421,0.26502565,0.23922604,0.6799208,-1.2430617,-0.49845678,-5.226496,1.0407408,-2.4410532,2.0671449,-2.3869004,-1.30229,1.0627403,1.2703465,7.0049872,-2.4580011,3.5472295,1.1214391,-0.866212,2.1817381,-2.350497,0.93679196,1.0029267,3.2323332,1.2331176,-5.844338,-1.2623973,1.5248278,2.6732156,-0.054594755,-6.127181,-2.3643558,2.3538349,1.1846716,3.4970005,-3.5018094,-1.6025854,-3.249317,-4.3862205,1.6934898,-0.4286279
PMC8669681,-28.680487,4.583875,-10.826668,-2.3623655,15.274371,16.531345,5.358928,-7.7234674,16.197203,-0.22561376,-15.092648,-7.7347875,5.339402,1.2553499,-2.241839,3.435002,-9.818018,-0.99541605,20.089476,0.11842466,-0.53204906,0.046944477,0.71480685,-6.5066376,-10.065134,-10.262456,-7.649712,17.2253,14.898743,-14.101916,-5.4230976,-6.727056,-5.2737412,14.233117,3.397671,-3.8250058,11.16954,-13.466858,2.8018482,-9.777299,-6.5748515,-11.309544,-2.6829996,-8.774405,-8.929526,1.9659443,-6.6060143,-4.860224,-0.23251954,3.4187505,5.3187203,14.971671,7.405642,5.0116267,-2.9737477,3.475563,3.9929357,16.533064,-1.5272855,10.18942,-7.357037,7.0631285,-5.410699,-6.1593857,10.258005,-5.3155146,3.4292576,-6.348798,-12.826734,-7.765477,-6.933783,1.6453034,-3.5959468,-3.073684,5.069615,-8.084627,1.1880074,-12.568549,-14.40457,7.0441093,-3.514653,0.78066593,12.154759,-1.8449477,-0.2484307,5.938263,7.3800764,-3.2182567,15.237592,-3.6735473,5.2506633,-1.0743454,4.4382463,7.1094594,-0.5695033,4.6438823,-7.055499,-12.7390995,-3.9478474,0.014753355,1.2514486,-7.9546895,1.9482578,-3.9125707,5.154377,7.3430185,-4.8407693,-5.2848206,0.40872714,9.682902,-5.157249,-4.293877,-2.348825,-3.7315912,4.4886575,17.292706,-2.6338947,3.8750038,1.2741234,-0.26849496,-10.508085,-4.060984,-5.381072,1.5114474,-3.4493349,11.888068,-1.2117229,12.878731,7.734001,-0.98067254,5.63709,0.044080146,0.84280306,-2.166289,4.6835184,-6.833471,0.9630319,8.041741,-2.841908,3.0782466,8.585222,-0.44678688,1.823431,2.8021047,-2.2327497,-8.910287,-6.0148473,-0.4217592,-1.7872314,3.7996101,-8.981259,-4.270991,-4.541983,4.5361347,6.1123376,0.8674485,3.7803588,-3.9941666,1.0003362,-0.15959579,3.0050902,6.3488727,-3.1045687,11.547448,0.698341,-0.32846513,5.927058,-5.7537413,0.5498482,4.9524426,5.184865,-0.6445637,-3.5399976,1.5303252,-3.799625,2.687527,9.223872,-2.7960255,-2.0471013,-1.6374962,-0.046244457,7.8067856,5.699044,1.150467,-8.24457,-4.856482,-3.8276687,-4.639711,8.460058,3.0304859,6.7118034,-3.6078486,3.3289926,-4.284181,1.3770884,8.801518,0.6552402,-8.269881,1.3481654,11.5173,3.3155024,-3.3591325,2.9284668,-0.87214005,4.833383,-4.1094747,-1.4120113,-3.8434243,-1.2180618,2.5033855,-9.409227,-2.1647828,2.7891226,-1.3583747,0.70976603,-7.0498433,-1.9466202,-1.6573848,-2.3167078,3.5868347,-1.3580536,4.902135,3.2273123,2.024142,-2.05338,-0.24342383,5.5815635,-0.55812275,-3.505312,-4.200764,5.3268776,-1.5758438,6.1657615,-8.025527,-2.1019642,8.200043,4.4502516,6.0736775,0.52698106,7.1375647,-5.0126557,2.1267397,3.3716042,8.938039,6.9854507,4.5399017,-0.7133767,4.718842,-1.6560439,-0.8843097,-4.368873,-4.4181623,4.9828343,-2.8652906,-4.027682,-1.7146499
PMC6312954,-7.270757,8.681043,-21.434143,-2.3712811,14.736582,4.7293167,-10.198084,-2.8026712,5.2491655,6.748592,-8.563177,-3.697418,7.5942373,-1.1916652,9.61889,1.9287357,-0.22840644,-1.02696,2.6442478,5.3593497,1.4415194,-0.115350634,9.616161,3.9311523,-3.0529747,-9.306407,-7.4165616,0.64790124,17.589546,-4.0089197,-5.8496265,8.280521,-5.0700297,9.5391865,6.937738,3.5982103,6.347364,-2.052301,-14.476751,-8.461881,-7.7794127,4.7107716,-1.9699491,-1.3166175,-2.8169334,2.5837357,5.516396,0.096155316,4.857849,8.263266,8.592625,-1.5945673,2.7156196,11.342487,-5.531803,4.9954386,13.421402,6.498607,-1.3502874,10.061033,-1.5627347,4.6735206,-2.4455657,-10.8358135,-8.382434,-1.5862137,5.072559,-12.024886,-6.8177476,-2.265123,2.4695048,-2.8381112,-9.515256,-9.314366,1.5026379,0.0028889214,-8.101529,-6.104952,-6.6460767,6.334638,3.7837746,-2.6206703,8.019027,-5.178753,6.080019,4.037249,-0.30439025,-0.36630017,1.5850334,-3.493328,2.8040404,1.7399728,-6.2089386,4.3480124,1.7962285,1.7524003,-8.068151,-2.5101275,1.4941629,0.1048417,-3.2862108,-7.5182366,-2.4508135,-6.750949,-0.13474357,1.7468354,1.4075264,-3.580445,-9.787519,9.939311,2.2148438,0.74237317,-9.517546,-10.078818,4.6480656,4.4914193,-3.9397438,3.6866004,-6.948943,5.470312,0.057210006,5.2753825,0.936713,6.8071322,0.7366317,0.24600829,1.6735977,7.795373,-1.9569427,2.86402,6.6292067,-1.8637862,-3.797855,1.0770445,-3.1792626,-2.0765352,3.3741882,-3.6153576,6.42997,-2.6513355,4.4937916,4.778981,-4.0176353,2.0938954,8.409281,-2.792535,0.6386935,-2.203596,4.511349,7.007214,3.5727324,0.9026582,0.6106866,12.208969,0.25127634,2.0363443,-3.271198,1.2175256,4.7679296,-1.3529189,0.8852231,5.365404,-1.5886327,5.1554,-1.5286568,1.5834864,6.667102,-4.8676643,2.3562315,3.142799,0.61661154,-7.698274,3.3456254,-1.3553866,1.6788825,0.32350543,5.4568744,-1.1568453,-8.073882,-2.4238045,-3.3210566,-1.6246488,2.2999337,-0.89042443,-0.13496925,0.7820135,-0.29767054,0.22830692,3.1948795,0.8900259,2.778837,-3.3381023,-0.97371113,1.9231048,0.31758156,0.49769968,-2.072363,-1.2500013,-2.0771906,2.416736,3.489856,1.0285543,0.27326548,-7.9245944,2.9000459,0.68803084,-0.9817226,1.1835902,-0.52158034,0.46074075,-4.4633026,0.4705608,0.5673653,-4.1186104,-2.1048281,-2.7035894,1.5125881,-0.04771792,-0.22541462,-3.0551627,-1.593611,-3.7365427,2.1984532,1.1596031,-0.24914895,-0.6454294,1.8538965,3.1070774,-2.7386565,0.28697643,-2.4624455,-0.994776,-0.19612138,-1.2827041,-2.9737551,2.8561575,3.2879653,1.7620299,-3.3488169,2.9102583,-6.108309,5.5005293,-2.0161626,2.188374,2.4676423,-0.70846736,-4.4123807,1.6680679,1.9195777,3.039515,0.84747344,-3.0459692,0.41589746,-2.3302515,-1.7026329,4.905613
